447 100
great 0.14567314 0.497419 0.8116199 -0.19999795 -0.3989063 0.3185103 -0.07424904 0.7261469 0.31987143 -1.5630352 -0.53741556 0.25254464 -0.21820115 -0.7493856 -0.24590291 -0.5273104 0.935199 -0.031656496 -0.02321514 0.772092 -0.08371232 -0.05771656 -0.32690832 0.77357423 -0.6298446 -0.40413955 0.6291366 -0.12754983 -0.2502332 -0.27656654 0.60770136 0.35897988 -0.18974029 -0.409157 -0.36419523 0.056251243 0.5381721 -0.062036887 0.69647235 -0.7078148 0.5022369 -0.42797655 -0.5545893 -0.1647793 -0.083900385 -0.4380208 0.7754477 -0.07296744 -0.05106918 -0.10913842 -0.49666804 0.37695187 -0.5857926 0.051528614 0.43052647 0.45584315 0.6649727 0.01675659 0.6467432 -0.4245424 0.6952242 0.04979079 0.27389282 -0.27895975 0.48483247 -0.09105723 -1.1940885 -0.6120815 0.39073667 -0.8659258 0.016972968 -0.91308546 0.51768875 0.13006496 0.49172524 0.039166577 0.49207458 -0.07091903 1.0632792 0.24402358 0.1058404 1.1156365 -0.99265665 -0.9926674 0.24010475 0.6308649 0.3580568 -0.5396492 0.42350912 -1.2641267 0.36563623 -0.6198342 0.20169438 0.10335542 0.2645501 0.2362821 0.53402215 0.32346693 0.66015524 -0.46903723
place -0.07099298 0.24370326 -0.2870479 0.39008567 0.5466695 -0.3937366 0.13099518 0.12619591 -0.54424363 -0.064347886 -0.42262325 -0.7364879 -0.20533077 0.20509559 -0.14413801 0.80677915 0.17258939 0.1786095 -0.6360483 -0.20720546 -0.594532 -0.34367585 -0.5618979 0.25339746 0.55471414 -0.054614123 -0.023084214 -0.25821874 -0.9575313 0.20117801 -0.19792417 0.07493832 -0.15185122 -0.24679089 0.49008408 -0.05756958 -0.84212065 -0.32331002 0.2750677 0.30303353 -0.3286223 -0.16878794 1.5224711 -0.08125283 0.6866658 0.55338204 0.110560164 0.6874659 -0.5478564 0.040752772 -0.20750621 0.30380142 -0.10205907 0.12461823 0.5421033 -0.1283452 0.17619078 -0.6433996 0.8645837 0.8048606 0.79371226 0.20371321 -0.85569423 -0.42135403 -0.37825605 0.03266634 -0.18436626 -0.758802 -0.09074308 -0.34059405 0.18515643 0.6003234 0.061059903 0.19717585 -0.0009050202 0.035149567 -0.061923493 0.36495265 0.4520227 1.0764519 0.20022939 -0.4296475 0.32564297 -0.11251864 0.20906526 0.42354473 -0.35398355 0.023340393 -0.5187107 0.5544734 0.042879794 0.34286118 0.40856117 0.51601905 -0.06365986 -1.0809977 -0.2059107 -0.69201696 -0.28108552 -0.329871
house -0.4070596 0.123237364 0.28173676 0.1090529 -0.20239899 -0.7714617 0.5933057 0.7735109 -0.33951613 0.034660205 -0.7854252 -0.54494405 -0.33918604 0.37895343 0.27931738 0.55040574 -0.3118137 0.70077443 -0.38018376 0.19946393 -0.21949664 0.8610388 0.44697103 0.44351307 0.21996799 0.17154709 0.039358467 0.41782597 -0.43048018 0.044630006 -0.42100784 0.2936096 -0.4611994 -0.26099354 0.21435489 -0.17814736 -2.1426756 -0.44820398 0.7058357 0.010330834 -0.41302598 -0.26256365 0.051890045 -0.7740439 1.0604528 0.509069 -0.15873957 0.14450717 -0.27169955 -0.28295535 -0.13306975 0.21299902 0.5485453 0.5993745 -0.20603497 -0.5065257 0.01961501 -0.33483103 0.39205915 0.025005389 0.027372397 0.4489944 -0.20801984 0.091351226 -0.39876753 -0.2273569 0.1348482 0.4453604 0.58929497 0.21820085 0.5839389 0.12332202 -0.32215255 -0.24932528 -0.10661617 -0.4084607 0.5115313 -0.19914123 0.5914301 0.54114646 0.81376845 -0.4449354 0.0050243884 0.21233131 1.102157 0.30737287 -0.123584144 -0.45488653 -0.24454023 0.97549224 -0.012719431 0.017450418 0.4736499 1.0951527 0.17009136 -0.9468306 -0.118304394 -0.037727382 -0.91895 -0.9033286
location -0.77108884 1.6266352 -0.70167845 -0.21037728 0.3426468 -0.15790714 -0.74057233 0.5048385 -1.2864792 0.17215542 -1.3677053 -0.2674884 0.6165474 0.41351897 -0.022852894 0.5346056 -0.67688197 -0.10505345 0.9612126 -0.0021641308 -0.15562269 -1.2598884 -0.10552506 -1.2677165 0.3342467 0.13671088 -0.20892641 -1.0749608 -0.678872 -0.016713273 0.53204465 -1.0390124 1.3150834 -0.6938172 -0.23851776 0.054449797 0.10313758 -0.8225727 -0.06955725 -0.42573792 -0.94283277 0.4219761 1.3575032 0.3012877 1.0465894 0.20742989 -0.5421665 -0.50016963 0.34190792 -0.8105719 0.24505892 -0.38935262 -0.08440565 1.0794489 0.14616536 0.028042758 -0.19559224 1.1791277 -0.12043 0.76993006 0.03568924 -0.4712963 0.18849452 -0.6396478 -0.79895985 1.0257498 -1.4528775 -0.5194887 -0.8902531 -0.059357055 0.3231403 -0.58357286 -0.09283614 -0.32007676 -0.59328383 0.16023391 -0.21858078 -0.10260881 -0.09664914 1.6955286 1.3982242 -0.21294837 0.64617234 0.17449155 1.1220948 1.4515288 -0.2716203 -0.37480173 -1.0584453 0.12663883 0.04367477 -0.3328034 1.0724446 0.05630889 0.14077729 -1.1255454 -0.7299917 -1.7863001 0.5648849 0.31432205
stay -0.24358809 -0.041028105 -0.37214828 0.38857135 0.11262469 -0.039413217 -0.30021387 -0.21945679 -0.0954695 0.44695297 0.5211551 0.17302255 -0.5324279 1.2117031 0.71052986 0.01791566 -0.349578 -0.8661979 0.61771655 -0.6596493 0.0064719887 0.10508324 0.12956826 0.3574426 0.60910773 0.10053013 -0.16453375 -0.4235771 -1.6511544 1.0203389 -0.4465255 0.23282276 -0.1702048 0.6607041 0.6934555 -0.21172947 0.26029703 0.81438714 -0.36847842 -0.20896028 0.70828724 0.52690995 -0.07064748 -0.015682364 0.68739945 0.5134821 -0.3849106 0.47890413 -0.12203269 0.08211169 0.84341705 -0.10427605 -0.65730727 0.36632448 0.07253297 0.5432893 -0.25590953 -0.025724387 0.24259423 0.36679447 -0.0807961 0.19773506 -0.73044986 -0.3523997 1.3041508 -0.8255317 0.24674611 0.27543694 -0.5675512 -0.3331942 0.90936744 0.5466148 0.099921785 -0.5158254 -0.3168425 0.67533 -0.13760783 -0.35926178 -0.6039328 1.0016277 -0.16569278 -0.9580237 0.034845203 0.38979244 -0.72642154 -0.20028917 0.6706453 0.5166588 0.6641159 0.0942485 0.3050708 0.31327024 -0.2324009 -0.433349 0.19427718 0.7848462 0.5962138 -0.43437147 -0.12358158 0.16300341
host -1.0275186 -0.13749677 -0.801261 -0.63369673 -0.34422868 -0.20815405 0.6665851 -0.9649671 0.1608623 0.37471172 1.0060235 -0.08186063 0.74891067 0.39073032 -0.30014372 -0.5434884 -0.2382324 0.62887454 -0.6842392 -1.6832172 -0.089370176 -0.5906568 0.7682485 0.13640648 0.11328593 0.8259632 0.5759531 -0.65619236 -0.32131788 0.4510131 0.13925095 -0.16955668 0.24620968 -0.047370434 0.29889253 0.5399775 -0.5267441 1.4321073 0.43259084 0.61642116 0.16490717 0.09606377 0.87887543 -0.20959148 0.12348132 -0.51439184 0.5291729 0.41692016 0.14282991 0.2714395 -0.5786982 -0.987371 0.6363366 -0.7010942 0.45608136 0.13741565 0.326634 1.6264112 0.35095164 -0.70436823 -0.075238645 -0.0304109 -1.0199974 -0.22228752 0.9720974 -1.0590075 1.0374162 -0.15481465 -0.096480295 0.7223992 0.9085056 -0.6724692 -0.111454785 -1.00811 -0.03749895 -1.5589737 -0.012081842 0.06763541 -0.675807 0.29976693 -0.8229523 0.3298018 0.077938385 1.5694193 0.38865948 -0.021176863 -0.40856427 0.5457865 -0.6226387 0.28975993 -0.48502198 0.04862928 0.67933226 -1.2732822 0.07631601 -0.2916722 -0.49175516 -0.019598426 0.7333882 0.7712792
lovely 0.32463527 0.13240404 0.2118327 -0.92298895 -0.46676445 1.0333791 0.00058897777 0.2049602 0.6181662 -0.6174638 -1.0224963 -0.33384144 0.257928 0.558453 0.43772823 -0.35762072 0.41328916 0.20407362 0.5583737 1.0564034 -0.23506624 0.66239285 -0.07769382 -0.26658234 -0.702771 -0.6689043 0.1872604 0.4786649 0.71740425 0.6731956 0.28659704 -0.2643461 -0.9847402 0.03667863 0.042795584 -0.37308472 0.40946883 0.13129315 0.2268876 -0.21523726 -0.0643285 -0.5826491 -0.6494549 0.06494668 0.44411886 -0.70913243 -0.24710222 -0.49305218 0.11209679 -0.5965621 -0.24530983 -0.34908086 -0.6581161 -0.46172556 -0.074229784 0.29976052 0.4832221 -0.48943672 0.19361217 -0.77035594 -0.66458505 -0.03598827 0.36035022 0.21301529 -0.13623609 -0.0908939 -0.12155595 -0.11810409 0.027138308 -0.96076703 0.6866191 -0.21645528 0.2744271 0.044536203 0.0043117856 -0.26722008 0.86972255 0.2647768 0.17576794 -0.48882234 0.015117427 0.9179025 0.16098739 -0.777092 -0.45948985 0.27738148 -0.1734143 -1.2035856 0.2830663 -0.37435493 0.05826022 -0.5476125 0.0611005 0.28161487 0.20010328 0.2327844 -0.20128609 -0.2836023 0.36142054 -0.00030063544
clean 0.15542276 0.796974 1.4473963 0.29188836 -1.6269299 0.5759036 0.98995364 0.54037744 -0.47870135 -1.0799887 -0.51735634 -0.23298465 2.015578 0.6259429 -0.4134878 0.21759728 -0.07344185 0.21271284 1.012581 1.2431699 -0.027222317 0.65913874 1.3986886 0.092783965 0.18077122 0.39429897 -0.47873098 -0.30895078 0.6424466 0.82785416 0.73490244 -0.8010174 -0.060939208 0.1713942 0.009996554 -0.48621562 -1.4419541 0.36627203 -1.1167918 -0.3178376 0.7846657 1.0805045 -0.6226911 0.95579183 0.933787 0.7181311 -0.6471922 -0.26131538 -0.6750883 -0.26008695 -0.40630808 -1.0635211 0.08262123 -0.6459445 -0.07291014 -0.20500271 0.15424909 -0.6203472 0.53081954 0.3015599 -0.36852756 1.1272303 0.94346297 0.35769337 1.5608865 -0.25833246 0.34107655 0.35662997 0.16163327 -0.6234244 0.0779196 -0.89869 -0.14987595 -0.1460566 0.49971044 -0.63952506 0.43021283 0.063108064 0.376543 1.7246945 1.4624795 -0.01999438 -0.0963246 -0.33267462 0.24704726 0.3842394 -0.10814032 0.6814179 -0.28682184 -1.1266652 -0.011005637 0.404343 1.3307428 1.1103557 1.1171352 -0.17792407 -0.7424056 -0.16656524 1.2757112 -0.16200253
comfortable 0.20983478 -0.17951657 0.3379062 -1.0660403 0.35678104 1.6269497 -1.3202528 -0.6760445 -0.7213483 -1.1731144 -1.2593124 -0.5218186 0.7769081 0.1856187 -0.7990349 1.577486 -0.8302129 -0.6925836 0.51008207 0.8124288 0.37673426 0.28773844 0.65532386 0.32278728 -1.0821483 0.09567004 0.8964835 0.5696669 1.0231255 -0.33168095 0.16742283 0.13217701 -0.6927748 0.051301714 0.029777085 0.6104572 -0.70816356 -0.47151828 -0.03166642 0.49041525 1.069681 0.41417852 -0.33693486 0.4646218 0.4329569 0.51349974 -0.3795839 -0.9065885 -0.26409578 -0.98710954 -0.77036715 -0.5122125 0.27008054 -0.027296944 -0.8485394 -0.47017694 0.4876008 -0.62004274 -0.05488023 1.341754 -0.40219265 1.6891558 0.20357676 1.1689736 0.35055146 0.24258542 0.92053056 0.102565 0.05046294 -0.06701992 1.6030787 -0.6003717 0.8253386 1.0663314 -0.31898123 -1.4307879 0.04274454 0.12168044 0.7866384 0.09733336 0.5614317 0.41548285 0.3135041 0.43146706 -0.4887681 -0.0721633 0.22197501 -0.42353916 -0.28826976 0.21351309 1.173902 -0.39801025 0.9828142 0.20958823 -0.087525874 0.49272853 -0.118691266 0.15558372 1.1622936 -0.45825565
beautiful -0.1832428 0.78956157 0.23088516 -0.8439697 -0.2691017 0.7755121 -0.69226897 0.47820824 -0.13272987 -0.2113237 -0.7435396 -0.30223948 -0.2835844 0.90545636 0.98209715 0.09630987 0.24438386 0.56230706 0.2842922 1.1614954 -0.21823707 0.71488935 -0.37846452 -0.34247082 0.20458432 -0.94392264 0.13095252 0.22386892 0.97816885 0.23980618 -0.24328324 -0.34123233 -0.5231624 -0.23175254 0.6539209 -0.3594636 -0.08498731 -0.47353104 0.10227615 0.17453352 -0.26909432 -0.6240891 -0.13444406 0.6359011 0.700716 -0.7764974 -0.33544102 -0.5572325 0.32533306 -0.7804712 -0.12198673 -0.053926703 0.09166865 -0.2684024 -0.16653517 0.2528442 0.8361059 -0.33661857 -0.4991953 -1.0569298 -0.7220989 -0.626363 0.6334434 0.749285 0.012430929 -0.23875307 -0.5807398 0.6199759 -0.099299654 -1.2782245 0.67759866 0.6057056 0.17117056 0.10016069 0.37548342 0.30124384 0.22682959 -0.46846387 0.9070602 -0.1177631 0.6734359 1.225241 0.6722699 -0.3145651 -0.2763029 0.41753808 0.53234243 -1.2609258 0.58516085 -0.1860298 -0.29308328 -0.36234185 0.120107055 0.6165842 0.94522136 0.69693893 0.29360402 -0.13793334 0.41969272 0.0937525
everything 0.11939208 0.16617523 0.97743154 -0.23740149 -0.37444353 -0.10675033 -0.109717906 0.2807168 -1.0917996 -1.182852 -0.19873084 -0.6218769 1.5028195 0.15471324 0.41109523 1.1175655 0.18664429 -0.56674904 -0.57318497 0.3351901 0.15370151 -0.16787928 0.6464399 0.337886 -0.02555403 0.37279418 0.08514165 -0.1657082 -0.17556645 0.22543487 -0.10932797 -0.40030652 -0.081363 0.5939683 -0.035738375 0.79904115 -0.67375416 -0.08589451 0.04747053 0.29502568 -0.10187011 -0.1300964 -0.9400186 0.15718465 0.5037453 0.18087755 -0.050915826 -0.20805837 -0.8327315 -0.8728612 0.2819069 -0.28829733 -0.13844655 -0.63544744 -0.14217623 0.03891916 0.33187822 -0.034514997 0.031184921 0.79472184 -0.2559564 0.18625276 -0.40128437 -0.8354004 0.1973562 -0.5039197 -0.75299454 -0.55074966 -0.8537901 -0.45838 0.39525607 -0.86604923 0.7991066 -0.1924287 0.8600695 0.10550643 0.6809303 -0.24719821 -0.38869715 -0.49193916 0.51073575 -0.6879677 0.31929794 -0.09622651 -0.6389232 0.526475 -0.60584 0.81771946 0.16538881 -0.31189933 0.062376283 -0.4547992 0.90881395 -0.16690263 -0.095247805 -0.20582767 0.37553647 -0.11861376 0.5628951 0.06851702
view -0.47543895 -0.12962666 0.75116545 0.16506867 -0.0598975 -0.26831192 -0.35321838 -0.37009197 0.14969854 0.080007024 0.16862017 -0.81373155 0.3564959 0.9889835 0.8721463 0.5838496 -0.50836813 1.7312849 0.31489635 0.12598796 0.61294603 1.2264935 0.5775111 0.0663781 1.0970004 -1.4889024 0.64382523 0.91477346 0.007441098 -0.9740186 0.31163687 -1.5197352 0.707966 -0.7916999 -0.993778 0.87350607 -0.14598276 -0.7341081 0.5193962 -0.36530292 0.61663646 0.92600447 1.4646204 1.6092852 0.18234326 0.14377163 -0.95739 -1.6861539 1.424905 -1.465433 0.46287608 -0.3877659 0.022121685 0.5927256 -0.18979073 -0.12992717 -0.050374836 -0.11716869 -0.3811482 0.8342169 -0.83775914 -0.5054613 -0.2993496 1.2727437 -0.91213787 1.293682 -0.75205475 1.1413333 -0.48277542 -0.4242857 -1.2771306 0.098145775 -0.88763833 -0.2301916 -0.9299056 0.15625884 -0.4934403 -2.1008608 0.011727249 0.017584583 1.0481681 0.7244041 -0.56060195 0.65422857 1.4085792 1.0394351 1.054512 -1.6513492 0.78266907 1.2042284 -0.67348534 1.2010999 -0.9946173 0.6412085 1.1426768 -0.554912 -1.2513468 -1.9389142 0.51735264 -1.1514033
good 0.72656095 0.4136718 1.1122619 0.42349654 -0.122323215 0.56083834 -0.18913831 0.24367696 0.40047827 -1.2776697 -0.1896879 0.9344017 -0.440709 -1.3926485 -0.41906697 0.3292524 1.1876189 -0.5320945 0.845179 0.28317538 0.07797337 -0.6107 -0.29867214 1.1189163 -0.7726893 -0.33281744 0.34406605 0.46959576 -0.536628 -0.80083025 0.7051013 0.7510687 0.05155244 -0.5896655 -0.7841483 -0.37283102 0.72447914 -0.39217937 0.27265304 -0.51945156 0.60881 -0.6344579 0.16771758 -0.692801 0.14161578 0.11748216 0.5949607 0.19147205 -0.19880258 0.13014662 -0.50533545 0.57244647 -0.10268516 -0.4835865 -0.16012588 0.23493822 0.63897544 -0.2790452 -0.270591 -0.15861268 1.0540918 -0.61325824 1.0281745 -0.15550932 0.6216778 -0.47260043 -0.42364663 -0.9191922 0.9270668 0.18830647 -0.6907657 -1.1048725 0.57230365 0.45972797 0.70907784 0.10284055 0.60850865 0.46505272 0.99269825 -0.133003 -0.3723969 0.816175 -0.8808421 0.01625281 0.25960815 0.53896827 0.559634 0.2859266 0.8202067 -0.82312673 0.13520357 -0.32560503 -0.3006576 1.0712854 0.4811009 0.39735195 1.0302446 1.2057706 0.31177002 -0.46478328
hobart -1.1730732 1.1891062 0.6253563 1.3713003 0.54806453 -0.6339352 -1.2201744 -0.86560404 -0.23719646 0.55122674 -0.7791835 -0.19206044 -0.25172913 -0.22890583 -1.4614311 0.44605866 0.13576262 -0.9057085 0.15680923 -0.5282037 0.15921041 -1.3314692 -1.2940522 -0.8534358 1.6687955 0.094737776 -0.8384384 -0.19414827 -0.5250954 -0.26561376 0.81219184 0.4386612 0.81902033 -0.8253787 1.010967 -0.70073855 -0.72759813 -1.5566063 -0.5387404 -0.11756404 -1.4165719 -1.0698925 -0.31089982 -0.4060195 -0.19915704 -0.99152505 0.0766244 -0.42769712 0.47769892 0.13808404 0.25264326 0.587206 -2.1518884 0.36313292 0.04488926 -0.26088616 -0.083679095 0.82333755 -0.0053622196 -0.9078095 1.57304 -1.018502 0.44044778 -2.6727479 -0.8778777 0.24170679 0.1827485 -0.6033167 0.42476186 -0.17255507 0.45413956 -0.7530848 -0.1910911 -0.33645457 -0.5105436 0.07098676 -0.16772108 1.2082685 1.1795621 0.7380595 1.1669073 -0.3159172 -0.16910933 -0.47157502 0.085097454 0.8047802 -0.34293562 -0.17545952 0.5458535 -0.9337883 0.8615587 0.8543326 0.14455162 -0.2778947 -1.5816565 0.3385705 1.2110429 -1.3177743 0.92460775 -0.57822186
nice 0.7556252 0.4225527 -0.011513238 -0.4319304 -1.1609004 1.1767323 0.08021744 0.25822207 0.338807 -1.1349626 -1.1291884 -0.67158246 0.17920414 -0.30635434 -0.2497284 -0.010648077 0.35012358 0.5682701 1.0840936 0.9478846 -0.2407714 -0.009070581 -0.028545776 0.00066385866 -0.7593128 -0.47244254 -0.16582474 0.48937094 0.15287425 0.5012051 0.63656306 0.46669456 -1.0711805 -0.49064907 -0.45226794 0.15395156 0.25508422 0.3473715 0.23290059 -0.13930465 0.039629415 -0.77695817 -0.48435158 -0.31242773 0.49825206 -0.19505131 -0.5631058 -0.19188367 -0.51653886 -1.1234165 -0.06196247 0.11979153 -0.9141296 -0.78714454 -0.45256817 -0.02448603 0.3269625 -1.2053438 0.3248547 -0.6638117 -1.2878653 0.24924488 0.46039617 0.58933836 0.095385164 -0.07086728 0.08067547 -0.6710483 -0.20952433 -0.5741208 0.13612649 -0.91943383 0.19748467 -0.28414935 0.37520197 -0.7616074 0.4437361 0.3993005 0.5790903 -0.68022037 0.27607036 0.65556604 0.13480875 -0.7348159 -0.14398637 0.699804 -0.43402976 -0.03736527 0.6648602 -0.75902164 -0.06931603 -0.29350927 -0.14912723 0.23871812 0.36641014 -0.096989155 0.06628068 0.040470723 0.20687255 -0.2878919
perfect 0.027352612 -0.73774785 1.7956994 -0.15632471 0.35326314 0.47157776 -1.1361287 0.89138144 -0.20837352 -0.82270163 0.25298914 -0.17734441 -0.28980318 -0.2872088 0.24559994 0.5039665 1.2349617 -0.36595812 0.57523835 0.83821595 -0.03861319 0.06444252 -0.17002095 0.30921674 -0.22406937 -0.6900296 0.6643793 1.1454632 -0.83714217 -0.04435058 -0.5027394 0.6452202 -0.22296959 -0.072612785 0.63389117 -0.17442317 0.28643894 -0.5348101 0.33322138 -1.0177437 0.42313242 0.07918269 -0.3137587 0.4110604 -0.23856227 -1.3422931 -0.16796589 -0.54056114 -0.8367102 -0.18525018 -0.57899487 0.65416664 -1.1474322 0.19225655 0.3865753 0.40584922 -0.14823757 -0.559188 -0.17073883 0.33771646 0.6006726 -0.5317296 -1.0070349 -0.3140654 -0.038091976 -0.11166889 -0.4837249 -0.12217073 0.5114299 -0.59106094 0.32550755 -0.27152264 0.9176323 0.62796235 -0.037087206 0.42991003 0.5490921 -0.32305732 0.64856815 -0.11997296 0.50351334 0.4590853 -0.7240748 -1.7119101 -0.08015478 0.053424213 0.11224996 -1.5210325 0.12228871 -1.6762419 0.49651402 -0.46675485 -0.36809292 0.0053449185 0.41149294 0.69221675 0.60575455 0.74066126 -0.29541042 -0.5119236
room -0.19953491 0.56908566 0.5583064 0.971036 -0.6237095 -0.65214896 1.7060082 -0.27580658 -0.69174665 -0.98642385 -0.77291113 -0.7568144 0.23831213 -0.15066354 0.06937061 0.6988116 -0.333516 0.46163833 0.517648 -0.27154315 -0.012765444 1.4184207 0.8409891 0.1819221 -0.74479413 0.043458384 0.39646366 0.6716352 0.04366891 -1.6832672 0.2806557 0.14313526 -0.583535 -0.61615026 -0.32768852 0.6288272 -1.570464 -0.28835776 0.8320998 -0.44990277 0.60995513 -0.14029488 0.121641286 -0.86508834 0.03491074 0.7900007 0.11572366 0.39524293 0.62672997 -0.5309281 -0.3260356 -0.9448996 -1.0654566 0.58123285 -0.87760246 -0.9526948 0.6737733 -1.0523956 -0.63646203 1.6816553 -1.1908582 1.5528431 0.9505823 1.9102323 -0.03924086 -0.7811631 1.9838359 0.368447 -0.92102027 -0.07497043 -0.7317219 0.06833179 0.40813252 -0.22217359 0.3063187 -0.54047227 -0.22424044 1.1636323 1.3792975 -0.015758164 1.1334822 0.6205941 -0.89767015 0.62426627 -0.25567406 0.1998315 -0.9105356 0.041648038 -0.4639101 1.1382654 0.20953469 -0.81200475 0.44053507 0.83373594 0.5244096 -0.4283297 0.7315809 0.5707766 -0.7977948 -1.0097903
home -0.20325646 -0.024649916 0.12412505 0.71732384 -0.103101216 -0.5760403 0.53224945 0.8364217 0.51920944 -0.0010751945 -0.9425584 -0.58928144 0.3475405 0.9637486 1.1536326 0.5961016 0.08663276 0.40185297 -0.8139166 0.352761 0.07464165 0.9342137 0.17726907 0.33504567 0.33148998 0.45268762 0.21118094 -0.102879874 0.22726823 0.17669754 -0.14419279 -0.8565263 -0.83715767 0.51398456 -0.064811766 -0.8243491 -1.5623022 -0.55774206 -0.06757929 0.15467943 -0.07532264 0.9515022 0.8737601 -0.4115288 1.028248 -0.32594332 -0.7044731 -0.082705975 0.095814265 0.31936085 -0.5207428 -0.18639372 -0.20985247 0.27976155 -0.058938608 0.27423155 0.121717155 -0.804731 0.22571951 0.52983516 0.52254367 -0.051706035 -0.80315477 -0.25440127 0.523063 0.475106 0.097659685 0.49509025 0.41073057 0.10064807 1.4343495 0.09782324 0.04473209 0.17692794 0.58867913 -0.16853575 0.9608931 0.30659184 0.08479014 0.03203822 0.074913055 0.46402237 -0.032144267 0.08032074 -0.07722939 -0.086019196 -0.031218452 0.09248962 -0.22253093 0.91925037 -0.21203417 -0.1815577 -0.21071285 0.45644948 -0.9965731 -0.75890315 0.31447673 -0.248641 -0.33588323 0.23669267
apartment -0.28159097 -0.43375835 -0.04906875 0.870981 0.11770175 -1.0717634 -0.14700474 -0.34881544 -1.1590257 -0.4709605 -1.2037777 -0.3619858 0.5049497 0.64104176 -0.7542735 0.517482 -0.66725844 0.97722477 -0.2227199 0.3262447 -0.6319439 0.06078796 0.32170492 1.0006634 0.23450518 0.6756268 -0.5872571 1.0731295 0.16364922 -0.43025252 0.2118187 -0.40044916 -0.26171547 -0.8648333 -0.32478234 0.070975445 -2.0883453 -0.84354544 -0.23034164 -0.61273676 0.26737285 0.29262096 0.31060278 -0.2907551 1.1619079 0.8394609 -0.19293702 -0.34403634 -0.3368771 0.33638173 -0.33302772 0.0061734514 -0.34808975 0.24852493 0.19318904 -0.076418824 0.38066787 -0.5653461 0.48377383 0.57553446 0.043561984 0.45279568 -0.45736265 -0.8913559 0.03183508 -0.6692796 -0.8085905 -0.37079418 -0.43153486 -0.42086706 0.75677234 -0.21127772 -0.09346351 -0.0010220136 0.52139246 0.16300607 0.36492527 0.5017615 0.9327881 1.1561123 0.72957844 -0.18970181 -0.29080704 0.32822743 0.41865268 -0.0047416002 -0.32475045 0.084132046 -0.45537016 0.586642 0.59444696 -0.46333593 0.7645823 1.0142704 -0.16626416 -1.1385002 0.48639336 -1.2741677 -0.8212483 -0.5252673
time 0.3092518 -1.0077391 0.31563947 0.5349999 0.46566704 -0.12179114 0.22185516 0.39910907 0.34700772 1.1176064 1.1980257 -0.045357864 -1.0136973 0.6558646 0.79911447 1.0567331 0.23214789 -2.0260441 0.19161935 -1.5459286 -0.3662032 0.9096889 0.1489334 0.67347294 0.1692201 0.11046193 0.18436813 0.086537145 -0.19841808 0.3247605 -0.9003538 0.5587766 0.24919349 -0.4270279 0.70944965 -0.88450307 1.0629948 0.37789202 0.4123124 -0.054066196 0.31632116 0.25024325 0.49037486 -0.22066756 -0.41227752 0.61413205 -0.2605247 1.0409639 0.8572584 0.13490757 -0.58630437 0.3573277 -0.35489887 0.20040935 0.9597591 -0.2825418 -0.085925125 -0.14010468 -1.2398647 -0.7708803 -0.56052935 -0.38359022 0.29415917 -0.08581819 -0.31456274 -0.28483173 0.2926007 0.037608985 -1.4027288 0.3848661 0.27997532 0.26204965 -0.36990097 -0.21039169 -0.4678945 0.402132 -1.0964934 -0.24369211 -0.15399416 0.0885011 -0.33495647 -1.0434098 0.40490025 0.009964574 -0.4119082 -0.065476194 -0.39899015 0.7273214 0.70075816 0.20006023 0.53697 0.31234112 -0.8595275 -0.22905521 -0.47644857 -0.066706695 0.38323364 0.02839121 0.48434982 0.40782666
close -1.0296254 0.1771736 -0.315355 0.6973571 0.5133914 0.9054599 -1.1028754 1.780242 -1.1224059 -0.116848394 -1.1190379 -0.63813704 0.027556784 -0.7704669 -0.41702935 -0.56127924 -1.2564125 0.45937443 2.2511883 -0.8485382 -1.6796583 -1.8027431 0.8239574 -1.9208317 0.6893133 -1.8389114 0.42977798 0.8644838 -0.060656928 -0.049389232 1.0923574 0.8460533 0.46868652 -0.29722926 -0.32999036 -0.685729 0.108268864 -1.2466697 0.41126403 -0.5310846 0.44012982 0.65578115 0.73745453 1.6558496 -0.12444159 0.38099653 -0.2208455 0.16823487 0.8072587 -0.35266897 0.30340067 1.5279638 0.29039955 0.5129349 -0.81888115 -0.19002974 -0.93631685 0.62634826 1.9711764 -1.4264853 0.48389116 -1.4112597 0.4796584 0.017281752 -0.8251032 0.3372363 -1.0026686 -0.53352505 0.75402546 -0.6536516 0.16846836 -1.0533763 -0.08738389 0.06531206 0.8267666 0.50724244 -1.1088562 0.3024413 0.60952795 1.0325029 0.9589592 1.1267952 -0.5692699 -1.3411223 1.9564956 0.5415642 0.1064313 -0.5224928 1.363996 -0.51665115 -0.21712752 -0.3885651 0.5922747 1.37738 -0.11755587 -0.45937404 -0.17023197 -1.0298126 -0.29897857 0.32642987
bed 0.17966953 0.53566116 0.7160663 0.21102877 -0.06924376 -0.47738415 1.6197929 0.41660935 -0.010002492 -0.6934159 0.8000663 0.27787906 2.07041 0.4574415 0.76845646 1.1722475 -1.4569871 1.3128955 0.82161057 1.7224047 0.1088114 -0.05370978 0.5583331 1.1057152 0.21461771 -0.8170527 -0.68670434 -0.16566329 -0.7414388 0.11372738 0.52559173 -1.85314 -1.0640026 0.34870693 -0.78228676 -0.33697748 -0.99168247 0.6387196 0.36710924 0.21760464 1.237007 0.9923191 -0.8288721 -0.97266376 0.5542034 1.4611824 1.6920825 0.42515212 -0.14387445 0.6576282 -0.52646923 -1.0269758 -0.7986914 0.2813781 -0.15678114 -1.8175952 0.20291068 -1.6155665 -1.2102544 0.5735068 -0.89952856 -0.37504938 0.78046536 1.4151188 0.08625292 -0.9450392 1.7472467 -0.6406835 -0.3912082 -0.47705 -1.199316 -0.005463781 -0.7008501 -1.4301776 0.70816875 -0.49679914 0.6258757 0.024003306 0.5337177 -0.06224402 2.004314 0.3182969 -1.0677783 0.4835801 -0.5008664 0.8951045 -0.014504387 0.23038487 -0.5907904 -0.7317286 -0.90765727 -0.28051972 0.45483956 1.1577679 0.4412264 -0.6310771 0.41077238 0.23191425 -0.59870005 0.04045725
amazing 0.24436034 0.66237247 0.15906471 -0.5595196 -0.6074286 1.130006 -0.20503928 0.5967747 0.019745704 -0.4530087 -0.022883948 0.39498395 -0.2923749 -0.07802731 0.6234226 -0.6263442 0.40996996 0.39231345 -0.7331415 1.3517964 -0.22522806 0.7036353 -0.65708435 0.36250117 -0.11336709 -0.82027376 0.14984216 0.008265101 0.33463445 -0.7018205 0.24320175 -0.3802029 -0.06266482 0.018322026 0.089659 0.44485173 0.0746635 -0.4359892 0.8351964 -0.1454948 -0.19520949 -0.8277175 -0.5579804 0.14954536 0.48912263 -0.48557475 0.14109135 0.19942442 0.18536866 -0.3154372 -0.3625025 0.19857864 0.005054354 -0.074817844 -0.17803939 0.5255326 1.0668962 0.39713162 -0.58492905 -0.5959398 -0.050643068 -0.31457153 0.7042047 0.24593408 0.7962641 0.4137584 -0.41586503 -0.052359663 0.029828427 -0.9923637 0.3146697 -0.039656807 0.41608348 0.024396496 0.20294228 0.1505306 0.25145173 -0.23121017 1.0124438 -0.5779666 0.14428964 1.0606538 -0.045104444 -0.18131445 -0.24785419 0.50302017 0.3552521 -0.65986085 0.16053076 -0.5651044 0.017635461 -0.29619163 -1.2217535 0.8710625 0.39135438 0.34237638 0.104961134 0.13944381 0.23156294 -0.33835375
easy -0.08691845 -0.51623374 0.68223995 0.8676759 0.0008932505 -0.51510465 -0.41797516 1.4971563 -0.7772183 -1.1261334 -0.46519974 -0.29145542 1.0971326 -1.6300017 -0.64329416 -0.60621595 -1.2897856 0.45183733 0.85871476 0.8069541 -0.06798721 -1.4547585 -1.028964 -0.807467 0.039382767 1.2075531 0.53400373 -0.7671361 0.1847421 0.18206266 1.9270867 0.38039193 0.3561354 -1.514909 -0.067260586 0.41290683 0.7737547 -1.4244274 0.833532 0.34860072 0.20464972 0.24376476 0.40266836 -0.7085851 1.2867439 -1.0679142 -0.2209212 0.89543736 2.5293262 -0.83241695 -0.72737175 2.3458455 0.58112144 -0.95601726 -1.3892962 -0.99654764 -0.5545446 -0.18429495 -0.36798945 -1.7392181 -0.35686472 -1.5250486 0.09799876 -1.4830476 -0.53796303 -0.9905836 -2.251893 -0.2971152 0.19158982 -0.42435086 -0.7463215 -1.5172133 0.68230915 -0.24711366 -0.6475208 -0.67589706 1.6052879 -0.18110178 -0.03253554 1.5112642 -0.81386286 -0.8281431 -1.53911 -1.8111652 0.619045 -0.4587818 -0.8966649 0.50522923 0.17056166 0.11953679 -0.039388932 0.18373516 1.3501923 -1.556747 0.44942534 -0.53490376 0.46055853 -0.24122748 0.1723627 -0.72369415
wonderful 0.29206786 0.22959912 0.14913836 -0.47986475 0.15754409 0.79397434 0.03751242 0.16321579 0.8056693 -0.027945727 -0.42400908 0.052994873 -0.47298396 -0.2589546 0.35101503 -0.27279145 0.9645079 0.19056779 -0.52476656 1.1809616 -0.18653716 0.69070756 -0.24976045 0.24685088 -0.64333135 -0.30256036 0.2799945 -0.09921693 0.31906876 0.10049833 0.1982365 0.016422257 -0.38430065 0.38535705 0.14886951 0.1992539 0.13935065 -0.49406028 0.008816873 -0.09960319 -0.18271957 -0.28524953 -0.38155434 -0.4199266 -0.0990676 -0.7597168 0.09591296 0.48560217 0.11492856 -0.32333675 -0.12179703 0.13822877 -0.090665944 -0.3845199 -0.115770556 0.6788385 0.81705517 0.46056783 0.20029786 -0.30000043 0.46661937 -0.3915901 0.24258953 -0.118961416 0.38689575 0.25292873 -0.51194733 0.070876546 0.09864291 -0.7965411 0.5865911 0.13700257 0.34002537 0.09706446 -0.07934076 0.18863755 0.5941459 -0.4910102 0.29262465 -0.3540332 -0.25874957 0.9241087 -0.046262473 -0.95964205 -0.89275 -0.002382753 0.4130891 -1.0939149 0.101570696 -0.54827684 0.22517104 0.0358942 -0.78031933 0.26790166 -0.21985807 0.10385706 -0.013886051 0.2916169 -0.022260612 -0.07370005
night 0.63383484 -1.3476775 1.0738657 0.53268117 0.8510637 0.29577526 -0.6749292 0.73451304 0.4046888 0.4226452 0.7028223 1.010747 -1.3053015 -0.5103241 0.060707893 0.8108053 -1.1555604 0.100332566 0.5014216 0.06972705 -0.8456601 -0.19198328 -1.0893948 -0.37679875 0.19355156 -0.40366766 -0.23744379 -0.39377216 -0.9028109 0.76068634 -0.040990777 -0.31382528 -1.1406281 0.539367 0.36973262 0.59733254 -0.2884141 -0.050842702 0.11138359 0.72973025 0.33522418 -0.47304314 0.31027868 -0.41340292 -0.7422022 1.1706315 0.03960473 -0.28641972 0.7403454 -0.087322935 -0.5712629 0.734226 -0.81886935 -0.6578052 1.0399963 -0.323536 0.10116371 -0.7235199 -0.7559329 0.3369171 -1.2699186 0.32621446 0.7053219 0.49287176 0.20484203 0.9578939 0.90175796 -1.1065686 -0.6980766 0.22674665 -0.15502067 1.0039014 -0.5002667 -0.38032693 0.098363444 0.617207 -1.6191566 0.4268165 -0.36321974 -0.66384506 -0.47535083 -1.0512481 0.46210167 -0.26650316 -0.6990293 0.40557134 -0.5920261 -0.16146469 -0.70397437 0.47133243 0.8911517 -0.311942 -1.4720312 0.26173136 0.0057160966 0.007391904 0.7028656 0.56564057 0.12006093 -0.102001086
little -0.7105338 -0.318451 0.4599336 -0.6793509 -0.81211567 -0.48743254 -1.505333 0.36227393 -0.40797344 0.08958413 -0.8127255 -1.7182649 -0.6202343 -0.29283082 0.88070077 0.38445982 0.44859904 0.16055985 0.95237637 0.81004566 0.834675 -0.13293865 0.10728409 -0.73520654 -0.041535348 -0.018694796 0.22688949 -0.25054577 0.27199304 0.2232708 0.677629 -0.5329796 -0.26815754 -1.2897896 -1.2656652 -0.95613945 -0.24242537 1.1184622 0.15679629 -0.6527917 0.9836758 0.13176854 -0.56404763 0.35302874 -0.18538839 0.20714204 0.27698916 -0.842355 -0.5669045 -0.8517682 -0.3277272 0.29017118 -0.5175622 -0.2171051 -0.798919 1.0527658 -1.0568813 -0.38412815 0.9374562 -0.7082255 -1.2465203 -0.82683885 -0.40298444 -0.1368679 0.62493 0.52524847 0.5606455 -0.43283337 1.2002622 0.049742203 0.032236952 0.3456932 0.2932593 -0.41266733 -1.0110673 0.26734287 -0.47908968 0.8010793 -0.4030477 -1.1234797 -0.49229547 -0.79731905 1.3320647 -0.65839684 -2.0619252 0.34026465 -0.7374115 0.07469817 -0.22126986 0.50076485 -0.605183 0.21646173 0.732415 0.059500895 0.26312196 -0.32352403 0.04658974 -0.499795 -0.6569214 0.040125024
quiet -0.8370954 1.2129118 -0.24753554 0.039163236 0.21810165 0.80619633 -2.6321037 -0.10781252 -0.07487434 -1.3140383 -0.99279827 0.5843389 -0.27750832 0.24265821 0.30711997 1.2791917 0.012611366 0.3576055 0.36319804 0.51363736 -0.43671274 1.1540128 0.22274782 -0.33040133 1.1785364 -1.5408523 -0.45538518 -0.07036092 -0.53526974 -0.44837797 0.0061327745 1.4296927 -0.78802437 1.2459626 0.50188714 -0.60972637 -0.812895 -0.15885453 -0.8094181 -0.16363586 0.22951312 0.39239523 0.38325083 0.48218337 0.13576482 0.018076558 -0.041150764 -1.5580063 0.22652389 -1.3254988 0.15762722 0.9662256 -0.024847597 0.16156979 -0.64701855 -0.06964359 -0.9594871 -0.81743056 -0.2828124 -0.72943133 0.5812492 -0.25845814 0.38033462 -0.31345057 -1.1084054 -0.6966998 -1.0820471 -0.4445633 0.73862255 -0.3761143 -0.019461032 -1.4193915 0.7458146 -1.3563828 0.7537662 0.9335337 0.41087714 0.49812457 0.2852013 0.9131372 0.87313503 0.85313976 -0.58388865 -0.48807335 0.3585922 0.48936778 -0.86961716 -1.4030004 0.9661583 -0.15875651 -0.8974737 -0.41841847 1.8304619 0.09418842 0.88170874 -0.2515337 0.039561797 -0.85679036 0.7583104 -0.7488544
friendly 0.71993256 0.9258706 -0.6009111 -0.068099104 -1.1842545 0.1755681 0.84441906 0.4592162 0.9453238 0.3906995 -0.10689217 -0.29208592 -0.145999 -0.014090055 0.32161668 0.043048162 -0.22490661 0.36155647 0.07279367 0.17892653 0.3157326 0.1695192 0.9118126 0.15268083 -2.3990061 0.00859429 0.34412 -0.7859658 -0.0533114 0.87566054 0.67061436 0.69701034 -0.4252106 0.29100773 0.9545039 -0.27581048 0.459925 1.0949957 -0.50844353 0.1989761 -0.17500494 -0.75210404 -0.5269599 -1.3367257 -0.4445707 -0.98314536 0.36363897 0.3063755 -0.4482565 -0.88956726 -0.83533055 -0.9370083 0.8514342 -0.047102943 1.002697 0.32070115 0.17878257 0.77674025 0.06836391 -0.41937137 -0.10906742 0.46999088 -1.24951 -0.47769675 -0.66052467 0.12574764 0.73784894 -0.44210052 -0.43177262 -0.0695579 0.69743645 -0.45399305 0.41686484 -0.09272984 -0.60547227 -0.9721444 -0.24206425 -0.18896106 -0.8762018 0.5321922 -0.7248149 0.46676308 -1.2715585 -0.0060597947 0.97050977 -1.054931 0.09535814 -0.54761684 0.48404494 0.6445507 -0.102281675 0.008422286 -0.065446325 0.25203586 -0.10393093 -0.5290109 -0.20580105 -0.34847048 0.48925245 0.14916933
area 0.47606328 0.22170113 1.4809275 0.7412893 -0.25968447 -1.6684201 0.7518774 0.47424227 -0.20516074 -0.8263214 -1.8364452 -1.306953 -0.79854494 -0.6946295 -1.0126919 0.58600384 0.58149004 -0.36169687 0.075680204 -0.52775544 -0.41651794 -0.6667143 0.55544704 -0.40469655 -0.35324705 -0.52585006 0.8047724 -0.5648455 0.46244502 -0.59043056 1.2030588 -0.27600467 0.9084073 -0.021379502 0.07416959 -0.26739198 0.23998916 0.4205134 0.9709341 -0.73522395 -0.3763721 -0.48831844 1.3560256 -0.22842954 -0.30726248 -0.5641606 0.6986777 0.0856606 1.3174753 -0.17917185 1.0219271 0.86816543 -1.6258527 0.9280511 0.3012101 -0.28843346 -0.09991936 1.2343917 0.08217896 0.9776389 0.43316633 0.45910436 0.8845956 2.108278 -0.5043967 -0.038876988 0.29238418 -0.41944408 -0.794841 -0.24543248 -0.75015986 0.38559392 0.30395323 0.48105708 -0.013349731 -1.3144082 0.13524708 0.20471334 0.8365792 0.60982436 1.230529 -0.71414524 -0.64745003 0.054045517 0.13379568 1.1419591 0.44050917 -0.83668196 0.7284134 -0.25347242 0.47874373 0.3377607 -0.32198265 -0.33695918 0.46941274 -1.2791631 0.84077734 -1.0427433 -0.07491253 -0.24295217
warm 1.0541452 -1.419282 0.64273524 1.0216575 -1.2060692 1.3568976 -0.07810491 -0.57721937 -0.006002437 -0.22861761 -0.4287637 -0.21253373 -0.029382642 -0.3323771 1.0991122 0.62068117 -0.68974024 0.34255528 -0.8319613 0.3879383 -0.119492374 -0.07875105 0.015028274 1.0980271 -1.060126 0.24863951 -0.75746757 -0.8551053 -0.6130506 0.6948196 0.49442178 -0.31381723 -0.7129431 0.39578646 0.18660392 0.4675184 -0.3980373 0.37571657 0.6048403 0.41790348 -0.44331813 -0.3199007 -0.0348267 0.6076416 0.45231998 1.704738 -0.23802024 -0.19184552 0.4611321 -0.21311241 0.7417904 -0.6441398 -1.4773617 -0.042849705 0.4606537 -1.1711321 1.741538 -0.8576568 0.08669243 0.3536377 -0.85625756 0.4902436 -0.123517126 0.5217938 0.34172595 0.25142995 1.9413495 0.8585841 0.13254009 -0.044142563 1.420803 -0.49870968 0.41598934 -0.81063145 0.38685524 -0.3569156 0.5193327 0.19801605 0.26117525 -0.46755892 1.1322125 1.2230641 -0.41476196 -0.10857968 -1.5593837 0.37103647 -0.868495 -0.26375043 -0.24938118 0.26911616 -0.34369037 -0.17735477 0.4367287 0.47008094 -0.11856874 0.27425006 -1.3652993 0.8085557 1.1431472 0.4622418
cottage -0.1321884 0.06889536 0.284773 0.19186036 0.2308787 -1.0464889 -0.4300262 0.68356377 -0.032329954 -0.19520842 -1.293853 -0.6217392 -0.29290003 0.9702393 0.9774339 0.6464493 -0.8414302 0.88925254 -0.6241631 0.25758165 -1.3399249 0.27028796 0.1861911 0.20200546 1.2833376 -0.10501291 0.0030436392 0.32705486 -0.045579493 0.2591114 -0.3716853 -0.4164491 -0.9602481 -0.18949163 0.55409575 -1.096952 -1.8575729 -0.33789223 0.3813124 0.24366565 -0.61201227 -0.06514507 -0.042432003 0.13078557 0.13511609 -0.15083304 0.6250868 -0.12600787 -0.42826155 -0.24776612 0.24804212 0.11137858 -0.2236278 0.23600495 0.11328367 0.016992746 -0.053423643 -1.2110574 0.9361913 0.8986678 0.6245565 0.6584462 -0.6032444 -0.6895955 0.3510034 -0.40100712 -0.1380383 0.8797013 0.7672257 -0.18130955 0.7555642 0.72715855 -0.7990363 0.7774687 -0.4925754 0.7699907 0.83582264 0.25994927 0.3597042 0.95916253 0.13955358 0.13121013 0.09569088 -0.3069338 -0.08184984 -0.18490376 -0.33160716 -0.4887458 -0.059300177 1.2581697 0.2149871 -0.30731472 -0.0027664632 0.5102669 0.42695206 -0.7831935 -0.74843705 -0.321357 -1.1280333 -0.38456172
thank -0.05234571 -0.22867747 -1.0633616 -0.20703892 0.18237372 0.37752432 0.9540242 1.0084773 0.13235506 1.4723154 1.2733368 -0.45998093 -0.3732651 0.09675506 -0.25252858 0.08182775 0.47537184 -0.093581244 -0.9435461 -0.96144354 0.31920975 0.182567 -0.5509889 0.8162404 -0.8029775 0.0020623333 -0.47931936 -0.47760025 0.26093355 1.1288476 -0.097508766 -0.36224556 0.33314514 -0.07908062 0.2817797 0.08475323 0.114496276 -0.26663026 -0.4169853 0.8608192 0.3095207 0.77833754 0.3724353 -0.1541758 -0.18165648 1.5938565 0.23948884 1.5919757 -0.83371294 0.15191756 0.16134177 -0.09621508 -0.62060094 -0.24367541 0.5892911 0.029058846 0.4676249 0.8379323 0.7133658 0.35624424 0.07554668 -0.40878648 0.31384167 -0.30317235 0.17371051 0.4009273 0.32234055 -0.11479852 0.005822203 0.3169192 0.82364196 0.14040868 -0.2704456 -0.15664655 -0.0140030105 -0.5829395 -0.10148461 -0.316692 0.031313907 0.1673653 -1.5071625 -0.31521916 0.056579195 -0.18470766 -0.91744596 0.33232427 -0.05692902 -0.5218486 0.3351599 0.10267161 -0.34151962 0.4027392 -0.062193062 -1.2238833 -0.88798594 -0.56724674 0.5086267 0.03626938 -0.16448997 0.68372715
fantastic 0.2853589 0.453992 0.5538683 -0.4067756 -0.31228438 0.6574601 -0.2239987 0.6553058 0.41347912 -0.7638428 -0.17866342 0.14071952 -0.07867489 -0.22939064 0.022000723 -0.44828966 0.59864074 0.021429263 -0.29622015 1.1669211 0.064575255 0.27217004 -0.22823146 0.41761056 -0.42629728 -0.1549436 0.45389006 -0.114801615 0.03191645 -0.35843992 0.5155842 0.16258469 0.06282177 0.086792246 -0.29197502 0.42805007 0.027220802 -0.3162375 0.57955194 -0.48170778 0.12577397 -0.3726914 -0.5926304 -0.23848687 0.076367274 -0.4195725 0.3164722 0.08656597 0.26513043 -0.29471302 -0.47083998 0.14448442 -0.030355375 -0.22775656 0.24146305 0.5356409 0.64656365 0.62922287 0.16670847 -0.42726845 0.60711503 -0.14681235 0.17979918 -0.38978422 0.6717663 0.36996868 -0.8661038 -0.26636595 0.14244547 -0.72247154 0.32563096 -0.39648494 0.51338375 0.3072728 0.24724145 0.18838996 0.48579773 -0.27300227 1.1256753 0.012306753 0.013993547 1.220808 -0.46685204 -0.7879948 -0.2211877 0.503396 0.45906565 -0.916062 0.08080052 -1.0707434 0.42743537 -0.62081677 -0.22089384 0.21108943 0.32935748 0.4162868 0.42077553 0.02693789 0.32847303 -0.4516471
day -0.04797462 -1.737627 1.4825473 0.7214378 0.46552777 0.1078158 0.10180075 0.20531581 1.0465221 0.45048583 0.6236001 0.13463567 -1.384915 -0.45383534 0.30569464 0.24196357 0.5399585 -0.96621853 0.621229 -1.2594949 -0.6310858 -0.059715368 -1.3182678 -0.011613033 0.9001663 -0.26807866 -1.2021439 0.52670807 -0.59824246 0.5980261 -0.7565167 -0.08230908 -1.317106 0.5562017 -0.049086876 -0.59999776 0.39793453 -0.4555861 0.5157092 0.65811026 -0.4718688 0.8229214 -0.86182195 -0.42432493 -0.621388 -0.017821297 -0.9132138 0.5329301 -0.5611795 1.6941504 -0.3497626 1.5956333 -0.71231806 -0.21211548 0.6861561 -1.3026658 -0.47967952 -0.7154563 -1.927318 -0.2563919 -0.2990094 -0.7704017 0.15875599 0.13064125 0.047180656 1.4705142 0.861702 -0.18350688 -1.5282158 -0.41722593 -0.6822329 0.61650884 1.0397081 -0.12719046 -0.24015976 0.51385987 -0.9409995 0.5905801 0.36052004 -0.9367614 -0.5963614 -1.0391284 -0.2931957 0.25231066 -0.07063312 0.56098205 -0.72854596 0.05651263 0.7030378 -0.12260952 1.3627365 -0.39072895 -0.7776895 -0.3699541 0.49756363 -0.20916855 -0.051349454 -0.02356139 1.2180108 -0.9150835
space -0.21796322 0.60984164 0.15823768 1.115361 -0.7163639 -1.7820213 1.5966922 -0.06537523 -1.3440034 -0.88072294 -0.5592128 -0.81192714 0.39235848 0.5225059 -0.24043077 1.0089841 0.34180057 -0.16462208 -0.025587622 -0.09639661 -0.8770293 1.4773549 1.3669956 -0.337081 -0.21468274 -1.055737 -0.031505812 0.2722274 -0.012213765 -1.3989675 -0.3130442 0.00302061 -0.9905874 0.26187226 -0.5062212 0.52985495 -1.3248672 -0.13705201 1.0338506 -0.7904535 0.88025373 0.56361073 0.31592965 -0.44507346 0.5993032 0.056331873 -0.34479892 1.2028939 0.40038913 -0.50542897 -1.1447158 -0.024158526 -0.76563066 0.75773144 0.42641082 -0.13287286 0.9736056 -0.7998122 0.13934426 1.7969013 -0.17974587 0.77948225 0.23235868 0.42447084 -0.2738926 -0.25265473 0.8614741 0.34031314 0.36284825 -0.097088225 0.6018352 0.69539815 0.60330933 -0.439965 0.01743286 -1.8525821 -0.6207519 0.3917675 0.54771304 -0.007118424 1.633829 0.13276696 -0.19437476 -0.84925586 -0.03147154 -0.10064866 -1.1694958 -0.37983176 -1.0108474 0.8898867 -0.31933033 -0.19208722 1.3565714 -0.41170236 0.9261268 -0.16209619 -0.021966884 -0.20132108 -1.1889926 -0.12593181
kitchen 0.24331501 1.0086955 0.51669574 0.123618715 0.14728329 0.37990382 1.0261533 -0.4115931 0.12871242 -2.0377965 -0.41607875 -0.6452582 0.8795292 0.7725111 0.23614652 -0.5999925 -0.7319423 -0.23587811 0.44163415 -0.84330523 0.4430609 1.953896 -0.016272502 1.0762973 -1.467181 -0.2516142 0.4076445 0.24020141 1.2495711 -1.5670369 1.3842951 -1.1763114 -0.8460851 0.16690864 0.3391995 0.6135857 -1.4755033 -0.22817881 0.6919662 0.32722843 0.9981159 0.6239654 -0.37868726 1.0091394 1.5793589 0.5423458 0.7397675 0.1711224 -0.948198 -0.22596623 -1.0242771 0.13881505 -0.6819255 0.009240543 0.15663221 -0.16746609 -0.79640865 -0.49550912 -0.8831512 0.6427729 -1.0745679 0.5602355 1.8166795 1.5688491 0.31318521 0.809547 1.8085603 1.3327479 -0.15429482 0.9611899 -0.8268135 -0.5184104 -1.0917231 0.49558622 2.3406105 -0.7683268 -0.20364735 1.1382546 -0.011820839 -0.6784795 2.441522 -0.5533729 -0.4574159 0.5651465 -0.18159378 -0.2255794 0.18815129 0.94578415 -0.39539003 0.17702197 0.096782885 -1.0650887 0.7377941 -0.016543506 0.7246215 -0.710071 0.93287414 0.9534568 -1.1829499 -0.6208528
helpful 1.3000934 -1.3089726 -0.67494833 -0.23178717 -0.04775873 0.32936978 0.29377535 -0.19240192 0.45979425 0.5513433 -0.12665364 -0.1811347 0.4043569 -0.42181003 -1.3306227 -1.2767364 1.445776 -0.15087369 -0.48659495 -0.89527166 0.04335282 -0.52085006 -0.15359488 0.7997542 -0.97395575 1.5372958 0.4776875 -0.61984146 -0.40608695 0.6183474 0.3841359 0.90419614 0.41417798 0.10585997 0.29658246 0.42398152 -0.28374624 1.3300445 0.7097001 0.8865884 0.11520095 -0.22604625 -0.054097284 -0.90201336 -1.2287749 -0.74583447 1.2347909 0.40588462 0.32295215 0.96051323 -0.403079 0.44009915 0.23991653 -0.84938425 -0.15530135 -0.030167455 -0.073757395 1.6723658 0.59608036 -0.026265997 0.73935664 0.06454472 0.036503106 -0.23396891 0.3568668 -1.1627591 -0.5736882 0.48140237 0.25896728 0.17631282 -0.019742098 -0.9565084 0.33862296 -0.86986816 0.2720957 -1.484186 -0.9398078 0.22853272 -0.8164166 0.69708884 -0.5417255 0.0150511265 -0.99050385 0.5575807 -0.31250823 0.15874417 0.28120297 0.45679188 -0.0831393 -0.49267483 -1.1455417 -0.28361455 -0.20327443 -0.6817766 0.054493878 -0.6850633 -0.8632614 0.15254317 0.65260327 -0.94311285
walk -0.76549286 0.9570089 0.13492072 0.2571192 -0.13126579 -0.18423145 -1.2997942 0.78678304 -1.0279694 -0.39930514 -0.028988991 -0.99784005 -0.43002367 -0.4001152 -0.466884 -1.3272665 -0.858303 0.19752657 2.7142377 -1.2430286 1.2452457 -1.0516101 -0.3271361 -0.19542545 0.6581591 -1.8490435 -0.05384241 0.5638437 -1.6075454 1.7453204 0.12931694 1.8889688 1.9409684 2.3358355 0.027753491 -1.1638416 0.28320283 -1.0232899 0.21355094 -1.2813213 -0.13509504 -0.15602493 0.023698041 0.2393779 0.11693861 0.69866663 0.8866423 -1.8383572 2.3336716 -0.4802959 1.997249 1.1437865 -0.48290256 0.89211106 0.06391298 0.6320282 -1.1408274 2.036125 0.6053753 -0.34789383 0.72612035 -0.44371167 0.49663398 -1.0448008 -0.66380924 0.35693803 -0.85242176 0.5213924 -0.47362655 0.29156956 1.5890818 0.9616189 -0.44832337 -0.05512003 0.63961107 1.1758811 -1.8619419 0.009376886 0.90878785 -0.605965 1.152633 1.1777393 0.5569246 -0.22195522 1.3492785 1.4489758 0.77052474 1.750192 2.4857728 -0.19395679 -0.2590137 -0.93037266 0.56402665 1.0111332 -0.7288908 -0.7483456 0.50457513 -3.5933223 -1.7917283 -1.8885865
family 0.10890873 -0.12637733 1.5848742 -0.395058 0.9160027 -0.5318959 1.5084409 0.08905783 0.86376077 -0.33911568 0.71740717 1.2111508 0.19119015 0.12866102 -1.2699699 0.3619841 0.39425907 -1.2042327 -0.3862154 -1.0004561 0.951899 0.17452975 0.55750877 -0.6892977 -0.48091388 -0.37961164 0.5567484 -0.7964231 -0.96938384 -0.486847 -1.271666 0.6020173 -0.20534271 -0.053960495 0.7160135 -0.85088587 -1.0639675 -0.86067796 0.45160115 -0.37594914 -0.76651937 -0.26304114 -0.07883539 -0.6641235 0.8259012 0.5372906 -0.97753125 -0.10656634 -1.15933 0.25290143 -0.96937346 0.11685452 -0.3846962 1.0145695 -0.8302484 0.46365002 -0.76751477 -0.76826745 0.05393278 -0.0997389 0.10687859 0.22015482 -0.13375716 1.1721591 -0.43619356 -0.32492235 0.8085089 0.004948203 -0.5529757 0.3363185 0.15753905 0.6195466 0.075150155 -0.1560031 0.26239732 -0.27424687 0.093571 -0.74806195 -0.38244572 0.20112237 -0.150084 0.41184235 0.4064658 -0.6035082 -0.5046493 -0.6751326 -0.8675453 -1.2440921 -1.3666884 -0.38658667 -0.124230936 -0.44306108 0.48509988 -0.09621072 0.22721998 0.97637707 0.43052274 -0.010709513 -0.6004939 1.5896128
city -0.7571681 1.4264312 0.77896714 0.91238064 -0.48418254 -0.2502977 -2.4325104 -1.0157936 -1.3327581 -0.9291918 -0.13750418 0.04422656 -1.2032249 -0.23689616 -0.010109468 0.7993476 0.43616265 0.6605498 0.024900382 1.2074236 0.37063664 -1.5786914 -0.150205 -1.5694332 0.5309064 -0.3300899 -0.97385263 -1.0542789 0.2988917 -0.07470764 -0.5729968 1.0495944 1.2516769 -1.3078382 -0.4672864 -0.11288849 -0.42945442 -2.6018608 -0.38338754 -0.39520937 -1.4141927 -0.63892007 0.78847486 -0.52596205 0.6256223 -1.0772125 0.6022866 -0.081057474 1.4406465 0.12987709 -0.8426902 1.5796828 -1.3425416 -0.66168344 -0.92182285 -1.272097 -1.4227928 0.22759739 0.22746585 0.020928727 1.4619404 -0.3025147 0.55257493 -2.1561446 -0.5959033 0.29533446 -1.0560619 -0.7100235 -1.1958312 -0.23172383 0.12297669 -0.26499575 -1.1650671 -0.7205741 1.995181 -0.0017743811 -0.20210129 0.3330853 1.2703168 0.64687276 1.2923434 -0.9984313 0.50224936 -1.4100353 1.2444499 0.9439473 -0.05280532 0.15056042 1.853652 -0.142017 0.47797155 -0.65829206 0.18150848 -0.7721769 0.36159697 -0.3886487 0.11335562 -1.7347097 0.088822804 0.046803474
cosy 0.106436186 -0.6459227 0.3323875 -0.76292413 0.22028904 0.8405138 -0.045466747 0.5085175 -0.780816 -1.5248696 -1.705574 -0.7198412 1.1999388 0.08194126 0.30171302 1.2814257 -1.1682187 -0.30890015 0.0820906 0.6555399 0.19188572 -0.5029581 0.20906596 -0.07339032 0.90400195 -0.8012571 -0.093189545 0.30603397 0.7063634 0.8411548 0.2816259 -0.55741394 -0.5413024 0.7228031 0.09319822 -0.01128026 -0.8056135 -0.35193673 0.85379386 -0.0098406095 1.3313735 -0.14888221 -0.24114834 -0.34178582 -0.26065004 -0.7051878 0.15960176 -0.59879076 -0.7074456 -0.72693634 0.8895664 -1.300858 -0.55122447 -0.5795301 0.1374805 -0.1151454 0.65707743 -0.72490054 0.054396074 -0.03062641 -0.007896765 1.3059884 0.6967741 0.32963184 -0.24178003 0.5730053 1.7934064 -0.2303122 0.86447656 -0.5429809 0.33861274 0.19546086 0.49074087 -1.174938 0.44721013 1.1798228 0.46966097 -0.5079591 0.02888964 0.87798816 0.7408514 -0.37557337 -0.32371607 -0.16483231 -0.7632977 0.76169 0.0049576457 -1.6261328 -0.41370124 -0.27557698 -0.107303694 -0.5438646 0.4223945 0.28486446 0.7159325 0.68814886 -0.5038323 0.34812194 0.5400105 -0.49578282
spacious -0.09211274 0.15364373 -0.4093075 0.54769075 -0.6364467 0.65308577 0.6765532 -0.018573359 -0.4594143 -0.59448564 -1.1979811 -0.6384895 1.3469547 0.783249 -0.54564327 1.6456779 -0.59718204 -0.27150136 0.5734497 1.6074938 -0.4573777 1.0018437 0.9981341 -0.89187914 0.13269803 -0.8206296 -0.45182014 0.3217599 0.53140795 -0.7333651 0.38829243 -0.42139664 -1.0783281 -0.17572504 -0.03889138 1.0998996 -1.3620944 -0.04394788 0.8495657 -0.1399131 1.268364 -0.13294525 -0.6992004 -0.15142387 0.50240797 -0.1581182 -0.9394067 -0.71373624 -0.061722986 -0.37935126 -0.16706996 -0.7858641 -0.3144457 0.14801104 -0.37609527 -0.334625 0.4214436 -0.54214084 -0.43757015 1.3576475 -0.28837088 -0.22378641 0.8781805 1.0366251 -0.039291345 -0.6744874 0.28089526 0.18176572 -0.035833765 -0.073201016 0.5349317 -0.39627987 0.16997667 0.15864283 0.38307798 -0.62205327 -0.3755602 -0.68829006 0.20122717 0.061695088 2.3288624 0.58623785 -0.39359844 -0.82242113 0.040265355 0.7138559 0.43122983 -0.4227274 0.13197048 -0.29280317 0.4161862 -0.4896038 1.2976197 -0.18383677 1.5487533 0.2658489 0.376672 -0.3627919 0.004920801 0.08396878
breakfast -0.20589651 0.6193971 -0.90349156 -0.1974888 -0.65411663 0.19463004 1.6568202 -1.2610908 -0.08804795 -1.546392 0.74161416 -0.8152484 0.6116373 1.1269983 -0.074036956 -1.0661998 -1.9117806 0.57068163 -0.18760039 -2.0173166 0.9174441 0.4562721 1.1703815 0.5729811 -1.9347388 0.3897861 -0.021573814 -1.1138024 1.0129243 0.41023144 1.1580528 -1.8529227 -0.2341845 -0.34511405 -0.81409013 0.7155821 0.5447788 -0.68714017 0.19535658 0.87905496 0.12687099 0.8562127 0.20200062 -0.34961173 -1.1519316 0.25126812 0.6451314 -1.1338428 -0.3378207 -0.29862416 -1.7992494 0.49883193 -0.65998423 -0.9102742 0.30168694 1.6612406 -0.41156885 -1.2922229 0.16380386 0.12160751 0.6157525 -0.84274817 0.87353015 -0.26820692 0.19861989 1.1864839 0.23825061 0.40375847 0.76566505 -0.9852314 -1.0917832 1.1762714 -0.19703475 -0.38045093 0.22067563 -1.0997791 -0.5832381 0.856946 0.28741947 -1.8293331 -0.18206704 0.16123696 0.05289391 1.4687841 -1.074036 -0.017242843 0.67003816 2.0412138 1.5190237 1.1511904 0.12371461 -0.46116897 -1.3338805 1.0488472 -0.783985 -1.3783221 -0.54466015 2.1710463 0.5902916 0.9003542
beach 0.26112205 1.354436 1.9742688 0.41197255 0.75606394 -1.3167499 -0.75717163 0.9103669 -1.0422895 -1.2579994 -0.28131577 -0.32887098 -0.8563971 1.4444519 0.91852176 -0.5086749 0.9807129 0.14812833 -0.7793492 0.17357838 -0.30882332 0.63188463 -1.0674199 -1.0313412 0.60201764 -1.7414833 -0.33091444 -1.776251 -0.24403131 0.49813724 1.1649499 0.37618715 1.9335115 -0.4913423 0.7505517 -1.087177 0.6493277 -1.1655197 1.971437 0.17313069 -0.17200251 -0.4559195 0.78178203 0.5359774 0.2769331 -0.08564662 -0.43262595 -2.0563872 0.4370065 -0.4278471 -0.078959525 0.3931444 0.5998766 -0.31188777 -0.0026459335 -0.3827919 -0.44684052 -1.0911783 -1.0785906 -0.6045351 0.09356646 0.44144136 -0.18037578 -0.661671 -0.92120117 0.72629076 -1.7269586 0.026490575 -0.9222789 0.14903383 0.8264474 -0.51371837 0.91213423 -1.4496338 -0.3864231 0.59264106 0.82613236 -1.9568206 0.5796678 0.05128966 0.8682344 -0.12818225 0.75468224 -0.23991325 1.4722089 1.7732812 -0.78321874 0.24679293 -0.0063902005 0.49434817 0.23141178 0.5465917 -0.008991106 -0.47243083 -0.57511294 -0.30978644 0.07287964 -0.075285226 -1.7217215 -0.9102628
town -0.1656049 1.713014 2.1830344 0.2282815 -0.8242251 -1.0476732 -1.9030323 0.42431763 -0.44258922 -0.8584614 -0.81486624 0.17771544 0.30819494 0.07835783 0.19656202 0.20602548 0.23416321 -0.06015883 -0.45471963 -0.24792415 0.05323001 -1.4961703 -0.12895383 -1.243194 0.40173137 -0.85723627 -1.1299933 -1.1720631 0.014814791 0.84856194 0.1897747 1.0235544 0.7870801 -1.7545775 0.14141053 -1.0935808 -0.24151216 -2.2601204 0.5363162 -0.22845577 -1.389433 -0.7450307 0.6494553 -0.06158502 0.13481323 -1.6428726 0.8533019 -0.15397835 0.98758525 0.53885967 0.0034502945 1.303317 -0.78842443 -0.47831017 -0.42291507 -1.1083382 -1.1882204 0.21844141 1.0048982 0.1790569 1.168608 0.45942363 0.92545396 -2.5373726 -0.9096477 0.43827453 -1.4343596 -0.80391586 -0.5789844 0.39216885 0.43472666 -0.32938328 -0.7965319 -1.0815389 1.404024 0.10080518 0.1720296 0.40021053 0.8041784 0.3743764 0.9301774 -0.9015581 1.2318474 -0.29991573 0.82404625 1.4109621 -0.2142451 0.3934721 2.0927682 0.7446718 0.9328484 -1.1860256 -0.13468404 -0.5387557 -0.045081656 -0.07538144 -0.32091242 -1.2761338 -1.6151842 -0.053263538
lot 0.077195026 0.18258737 0.0070318864 -0.34576565 0.024916243 -0.24943893 0.37936074 -0.058426958 0.17023695 -1.3680129 -1.0357844 -0.5555917 -1.321519 -1.7379681 -0.2736053 -0.40091193 0.90310055 0.008114065 -0.15607351 1.1465296 0.54770356 0.4294328 0.58006895 0.78054327 -0.25127357 -0.23980609 0.92299825 -1.3775822 0.40557843 0.38666633 0.19590499 0.0015547669 -1.1102334 -1.6838883 -1.2722301 -0.078023784 -0.10360053 1.4675628 -0.074331135 -0.10272049 -0.3941133 -0.6792444 -0.6588966 -0.25346708 -0.27597567 -0.0029978037 0.27387613 -1.3271536 -0.36342826 0.3688456 0.06681151 -0.5489989 0.0038305891 -0.38218465 -0.58290493 -0.3317633 -0.090065315 0.79162383 0.44857648 -1.0099763 0.41236416 0.33626452 0.3687281 -0.40040505 -0.6478361 -0.4699424 0.32454917 -0.62577933 0.057621818 -0.12361494 -0.35870552 0.88693833 -0.41871008 0.37817484 0.10606756 -1.5778432 0.5376148 0.7330774 -1.4616709 -0.22348137 0.6309083 -0.4807377 -0.9762805 0.04494876 -0.33585173 0.47419092 0.8420029 0.51644635 0.34731522 0.50349516 -1.0046626 0.060511317 0.030645391 0.6676269 0.07482795 -0.14694516 -0.42699268 0.3125814 0.37438744 0.71534365
short 0.52300227 -0.51626885 1.1872848 0.68942773 1.4943339 0.59900403 -0.9058262 0.3742554 -0.6510654 -0.36303505 -1.2499439 0.05101267 0.4582613 -1.8282516 0.84933865 0.2442975 -1.2176646 0.7213047 -0.12304211 -0.19410382 -1.6933806 -1.7318672 -0.34390202 -1.3458371 0.4231329 -0.63577706 -0.86621374 -0.85673046 1.5443584 0.31043327 0.40595925 -1.1902658 0.8103246 -1.2047069 -0.14920346 -0.3182913 2.0766473 -1.9104944 -0.14521793 0.5157799 -1.5072031 0.23617856 -0.6938571 0.60248077 0.098244816 -1.1024605 -1.4540564 0.072483614 -0.37734565 -0.5348965 0.08236145 2.3205495 1.057598 -1.4669558 -1.4322916 -1.5033956 -1.2851982 0.1773893 2.0580032 -1.3209474 -0.33940306 -1.4792879 0.5848465 -0.4534318 -0.6689139 0.58000493 -0.6828331 -0.5082989 0.6123766 0.21484411 -1.9079621 -1.0115831 1.3729451 -0.027582357 -0.2550004 -0.90520865 0.638621 1.2224854 2.033522 0.8908092 -0.075671814 0.30891788 -0.7167838 -0.8019588 1.8524911 1.2940923 -0.6759914 -1.1468164 1.2053372 0.7445647 0.82260007 0.4583318 0.6002414 -0.5741117 -0.40742126 -0.11923034 0.8769406 -1.3329258 -1.0300646 -0.45091826
excellent 0.67230594 0.7169336 0.7463347 -0.1704996 -0.37201968 0.411985 -0.32218304 0.952723 0.5146117 -1.3509574 -0.4136077 0.3595865 0.22285312 -0.9964344 -0.30925655 -0.1667196 0.17532134 -0.028671196 0.47918177 0.57552373 -0.19164662 -0.30553776 0.15747301 0.7995183 -1.1449103 -0.0077505903 0.61117023 -0.17196453 -0.20212261 -0.85665303 0.6441732 -0.10087046 0.2029898 -0.09917534 -0.4706509 0.20494187 0.5273227 0.25478864 0.53428763 -0.3542077 0.3211019 0.07030039 -0.4322786 -0.6414452 -0.120311245 -0.25124234 0.62665343 0.106997795 0.33381674 0.23488764 -0.42471752 0.21712492 -0.39699638 -0.579077 0.75665736 0.5547077 0.75067204 1.1401768 0.29630348 -0.20327534 1.2306167 -0.36958972 -0.022613268 -0.44168735 0.6346928 -0.15785007 -1.3820642 -0.54726976 0.23631269 -0.22129677 -0.18308102 -1.4385133 -0.04477906 0.51331955 0.3465825 -0.16791256 0.2554604 -0.43484867 1.0235043 0.4372359 -0.26981354 1.2755758 -1.2709742 0.11834878 0.121110134 0.01549775 0.57872945 0.08912535 0.20362318 -1.121429 0.4598169 -0.59595066 0.14613542 0.0583694 0.54252195 0.5761393 0.5579958 0.8971556 0.6271749 -0.6344275
accommodation 0.13098869 0.2950792 -0.6847321 0.81931585 0.5091248 -0.7138366 -0.27545747 -0.6487169 -0.37385347 -0.56680304 -0.2325316 0.19391362 -0.18980636 0.42389032 0.8778577 0.16109985 -0.48928475 0.6076845 0.018137366 -0.7989577 -0.35596702 0.051972482 0.38412324 -0.45729053 -0.3144713 0.98125845 -0.39725742 0.42371386 -0.4892719 -0.8399743 -0.48132032 -0.2614762 -0.24509925 -0.13536417 0.5212765 -0.46873513 -1.1450137 0.20822394 0.05686272 0.6114312 0.04048565 0.44533837 0.8808757 -0.691602 0.96553385 0.3416963 -0.27958313 0.0153182205 -0.19687736 -0.06955503 0.061746288 -0.03708741 0.5792377 0.30773935 0.3439606 0.14031269 0.41545263 -0.5032819 0.42693737 1.0350767 0.46122482 0.07147301 -0.44413692 -0.46066448 -0.053787246 -0.6840411 -0.822798 0.16599925 -0.19585262 -0.5279124 0.40802297 -0.39994094 -0.43160167 0.13668971 -0.19390452 0.19242047 0.5637228 0.20596129 0.15537475 0.9193774 0.5238137 -0.43239382 -0.02375408 0.6753397 0.28920528 -0.104461975 -0.21354274 -0.002189777 -0.82709265 0.28774506 -0.1576666 -0.03143097 0.28795502 1.3156025 0.738239 -0.19965337 0.66925627 0.1901598 -0.21660177 -0.06821459
touch -1.4663029 -0.3114617 -0.16090944 -0.011251872 -0.31640568 -0.75050014 1.3842472 -0.25268754 -2.7160618 -1.5537109 -0.9175033 -0.39973113 2.329775 -0.121726476 2.2957358 -0.30014223 0.9392532 -0.6316449 -0.38572115 0.3808866 0.9112854 1.7958267 -0.6095717 1.849016 -0.2367089 0.2053527 0.19009209 -0.107289605 0.8717657 0.31210846 1.3996572 -2.182993 -0.36832026 -0.7617331 0.65173125 0.37816793 -0.8452046 -0.13347547 -0.5007344 0.84037185 0.14191772 0.97266024 -0.8938911 -0.018951327 -1.2024599 1.1249031 1.0724176 -0.32761487 -1.565462 1.715638 -0.3092592 -1.5078535 -0.11109569 -0.3728054 2.204762 -1.5521897 -0.36740196 0.55142343 1.5142957 0.29851246 1.8015656 0.43244573 -0.3717748 0.74009055 -0.91727376 -0.10918073 1.8877385 0.8857808 0.53549004 -0.0013173538 1.3034424 1.9486954 -0.96338403 -0.027637737 1.5945762 -1.3039758 -0.35981148 -0.64964724 0.5992063 0.38077676 -3.5149581 0.8488207 0.68674135 -0.040076658 -1.5195221 -0.60864305 -0.7758556 1.8994576 0.94428456 0.71874475 -1.6687493 -1.0679479 0.0032182538 -0.4800103 0.35670584 0.08843235 -0.5082408 0.76452935 -0.021817207 1.5714043
minute -0.11576543 0.3245631 1.1482332 1.1260096 -0.23479965 -0.19853255 -1.5587147 1.0270271 -0.25157738 -0.42885646 -0.78542864 -0.06390686 -0.29821178 -1.7502733 0.5267165 -0.3831603 -1.6602266 1.2499166 1.6467701 -1.0521103 -1.4155756 -2.5262382 -0.5257617 -1.3215102 0.26827922 -0.33794627 -0.8727483 0.028078284 0.028189803 0.4680002 0.6524702 -0.02150259 0.53003013 -0.6944446 0.926681 0.6029113 0.99207485 -0.9115862 0.09855502 -0.055963326 -0.8251297 0.021729589 -0.11900632 1.2622432 -0.39334172 -0.40655908 -1.1158028 0.13757215 1.1688026 0.51389706 -0.12963872 2.3829482 0.6600552 -1.2132165 -1.1517336 -0.72649777 -2.1253712 0.5737723 1.3291914 -1.5468454 0.08517502 -1.3627822 0.13905568 -1.0198026 -1.7313982 0.3269722 -0.88035655 -0.295153 0.13916901 0.075580806 -1.4860239 -0.501575 0.4565143 -0.26254192 -0.2341237 -0.6515407 -0.18638843 0.814106 1.5226152 -0.331187 0.088094585 0.49772263 0.64145225 -1.1658301 2.2117016 1.3406752 -0.20978029 -0.8543557 1.3537967 0.48072505 0.7367148 -1.6254338 -0.27886158 -0.5959804 -0.2525347 -0.0040995283 1.04934 -1.8712718 -0.71135426 -0.35932618
local -0.5091788 0.76873386 -0.98743474 1.2013687 0.59499884 -0.2897524 -0.12480949 0.19458586 0.7245753 -0.52623624 -1.4616073 -0.25680068 -0.894443 -1.5211467 -0.6040169 -1.2333978 0.64084893 -1.0131187 -0.23995636 -1.3104523 0.17770123 -0.98786104 -0.42066008 0.48502898 -0.4734963 -0.38492948 0.07828272 -2.3868368 -0.16006675 0.39282566 1.0968505 -0.27953723 -0.4734307 -0.8177134 -1.5735292 -2.0102131 1.3239373 0.30428964 1.7056389 0.15117459 0.18035513 -0.45236322 0.09429019 -0.20054086 0.33394432 -0.31997195 0.8647312 0.123611316 -0.008168453 -0.7605219 0.51623493 -0.59519964 -0.80848503 -1.2296091 -0.53098935 0.29373306 -0.44920656 1.8188186 1.1568855 -1.8198663 1.558655 -1.218991 -0.3020052 -1.2346567 -0.71907675 0.05572738 -1.1538717 -0.16964751 -0.7233371 -1.0309389 -0.14635773 -0.9209736 0.3841547 0.3464868 0.7424248 -1.9308361 -1.1575963 -0.09303464 0.24614449 -1.9313859 -0.47817534 -0.0457178 -0.19071464 1.4956138 0.9566167 -0.66208446 0.5821127 0.3563189 1.3181384 -0.595628 -0.551821 -0.9873408 -0.5437185 -0.7938491 -0.26537764 -1.8501598 -0.1909606 0.4568022 -0.25237733 -0.83700794
restaurant -1.8453859 1.9715444 1.4525983 1.4703286 0.36437485 -0.5632106 -0.43277448 -0.5083908 0.042171616 -1.8231559 -0.27178982 -0.36806104 -0.5618206 -0.2990935 -1.7640119 0.25566486 -0.5963911 -0.7506681 0.49780554 -1.4779863 -0.40622225 -2.4603746 -0.023863304 0.13747196 -1.0902565 -1.0400907 -0.76139545 0.039174665 1.3265753 0.32228687 0.72025603 0.7615266 2.1184714 -1.7907898 0.36267307 -0.94386214 2.0491343 -0.6530553 1.7967334 -0.5785149 -1.9216852 1.01455 -0.91061175 -0.059909772 0.42547366 0.7779552 0.17626771 -0.92451286 1.1123272 0.20975976 0.28133714 0.55829185 -0.8287201 -1.9266683 -0.7843055 0.31689328 0.8175027 1.0226035 2.713492 -1.6341504 1.3199495 -1.4045273 0.25616828 -0.8637705 -0.51648664 1.2746304 -2.0818317 -1.8240986 -0.18545246 0.32508633 0.47980383 -0.0027814435 0.098026946 -1.2810977 0.7364243 0.0811258 -0.9688415 0.38050792 -0.16616976 0.8990047 0.3344341 -0.13499606 -0.24819914 -0.1696971 1.7422717 0.7204854 0.14611611 1.9136399 1.0211908 -0.5213981 -1.2339581 -1.2490867 0.8992605 -1.0697721 -0.49959677 -3.6577053 0.5330903 -1.7324047 -1.476894 -1.2401952
experience 0.3696837 0.85827786 -1.2623125 0.75527185 0.4455482 0.21520399 0.1623324 -0.845593 0.42898485 0.3059424 1.9298128 -0.3343421 -0.19836558 -0.031274572 1.525428 1.2677583 0.2379411 -0.6343162 0.2952378 -0.8514508 -0.111781664 0.1398794 -0.4962464 -0.41953358 0.23859695 0.30235547 0.21955627 -0.0059807794 -0.11759508 -0.94992375 -0.42765412 1.1340733 0.058939412 -0.20154914 0.3954923 -0.20544259 0.13059811 0.8258855 -0.40054968 1.2449449 -0.7598027 0.3300719 1.7211915 -0.4542567 0.4895099 0.77215207 -0.20311001 0.74585235 0.5862785 0.18854035 0.48285884 -0.0022663253 0.8723499 0.85563827 -0.22409599 0.08082568 0.6805497 0.5631024 -0.04689717 -0.9692682 0.38214114 -0.52753896 -0.3328836 0.27019215 0.34501016 0.045038324 0.609278 0.18095332 0.06597343 0.7833215 -0.55851996 2.0104642 -0.36388135 0.31418014 0.055640627 -0.5275858 -0.4226291 -0.21219987 -0.60810906 0.7900853 -1.3092477 -1.063296 0.88678104 0.6152437 -1.6221551 -0.2527476 1.1700556 0.43661425 -0.44727314 0.3534512 0.6560066 0.27065837 -1.2582836 0.41579562 0.62655294 0.90383464 0.43322346 -0.055702873 -0.021297848 0.25782356
property 0.2699882 0.52945083 -0.0010178909 0.2881462 -0.2454436 -1.1949749 -0.15640132 0.14315079 -0.32747242 0.7452223 -0.5067215 -0.5436976 -1.2907592 0.36283764 0.57789165 -0.09531314 0.03497209 0.34246758 -0.4383855 -0.14455588 -0.50789416 0.60742825 0.5357299 -0.40430838 -0.36133343 0.19841297 -0.0016564194 -0.2055571 -0.23553658 -0.31175092 -0.5267831 -0.0118750855 0.190857 -0.5782252 0.2076721 -0.38167855 -1.5986737 -0.36948025 0.391977 0.6897089 -0.37697446 0.09953174 0.9347556 -0.37160164 0.9452492 -0.3398997 -0.24360207 -0.27676338 0.8085099 -0.14225163 -0.6443454 0.72183716 0.77933955 0.4901891 0.38593096 -0.16907774 0.2929585 -0.1246128 -0.8349793 -0.2463241 0.4151531 0.37281176 -0.5858069 -0.7417685 -0.5994216 -0.54326266 -1.047045 0.23313527 0.5839817 -0.071948394 -0.040359296 0.5199062 -0.19935566 0.25028327 -0.47899714 -0.22811334 0.24566057 -0.67882395 -0.1467748 0.4096042 -0.39117837 -0.34276024 0.27538484 0.6422923 0.76023173 -0.20778656 0.07546965 -0.316562 -0.4222323 0.68847203 0.035913795 0.8036048 0.29524451 0.0028239053 0.3556496 -0.13266698 0.21256503 0.09172318 -0.49952745 -0.90175706
bathroom 0.38101265 -0.60806125 0.566672 0.35617366 -1.1338032 -0.56604826 1.3032955 -1.6564475 -0.26120278 -0.6003143 -1.8190185 -0.181396 0.95562947 -0.9508825 -0.50789 0.99997574 -0.5548382 0.2420578 -0.3207273 0.7787861 0.8889437 0.5610313 2.0204873 0.2725768 -0.08437271 -0.71070766 -1.5224473 1.633161 2.1062574 -1.446945 0.849983 -1.1493071 -0.9735845 -0.46227264 -0.5825351 1.0526068 -1.342981 0.046167362 1.571588 -0.43219006 1.1415546 1.5195485 -1.1419113 -0.5052149 0.878456 1.9476522 0.14253142 -0.8426673 -1.2786958 0.8674501 -1.1152902 -0.9909776 0.4728034 1.7015438 -0.5772412 -0.67291313 -0.31663588 -2.0851572 -2.22413 1.6701063 -1.2128854 1.4429997 0.50620276 0.9830361 -0.36982512 -0.6570848 1.179085 -0.365726 0.13798918 -0.18633637 -0.44377238 0.23421004 -0.56090444 -0.40241066 0.20788959 -1.9582511 0.9177029 -0.6271504 0.38489288 -0.13400596 1.7436771 0.522692 -0.7032242 1.536614 -0.9867317 0.43563357 0.31472775 1.0707324 0.302463 0.25109172 0.20159888 -0.6197725 0.750297 0.38299873 0.24047484 -0.99482363 0.5343701 0.62768567 -0.37199834 -0.57252663
spot -0.4494361 0.76188713 -0.061142627 -0.63434154 0.49909046 -0.9980091 -0.21538462 0.8294398 -0.7145701 0.21942966 -0.45359516 -0.6289843 -0.29187772 -0.09639918 -0.16915832 0.010101141 0.39882237 -0.22188178 -0.07746024 -0.03643342 -0.9838395 -0.47610667 -1.1650896 -0.3801388 0.5545783 -0.4627302 -0.030377138 -0.39410013 -0.90763927 -0.2703514 0.5901991 -0.6517067 0.58553493 -0.45075083 -0.071790405 -0.7248883 0.07345624 -0.8433132 0.74576795 -0.71067977 -1.0177957 0.11834518 1.708921 0.6652348 -0.12115799 0.41686565 0.13180393 -0.51837295 -0.15017207 -0.5702021 0.47183844 0.5781389 -0.22371435 0.78799796 1.1706187 0.070306 0.17997785 0.3225864 -0.06964518 0.8924305 0.8962412 -0.3662619 -1.0700444 0.2706365 -0.84063596 0.84947103 -0.7928581 -0.35536095 -0.43216825 -0.36739734 -0.22875741 0.5070138 0.07802067 0.17736533 -0.044946812 -0.3200152 -0.050702963 0.33173984 -0.5135256 0.6849717 0.57348675 -0.9783804 0.68548477 -0.54291105 0.911306 1.5855161 -1.2958602 -0.51597166 0.13229866 -0.06484556 0.035376344 -0.06994906 0.21012573 -0.7055145 0.20907362 -0.9163312 -1.0847262 -1.5471667 0.14085843 0.1829352
comfy -0.14734772 0.14818668 1.0226579 -1.2020985 -0.04862414 2.5959287 -1.0891225 -0.7782844 -1.0941215 -1.5455463 -0.6954137 -0.2732585 0.99668485 0.3276831 -1.3479935 1.5708307 -1.52738 -0.6757048 0.9234742 0.9401177 1.0944633 0.29857475 0.29512438 1.3256421 0.11017191 0.09623685 1.3482134 0.5373984 1.5919204 -0.55788416 0.8690244 0.24217427 -0.894844 -0.3647277 -0.7035705 0.45352712 -0.44741923 -0.5318708 0.57631665 0.7082457 1.6766388 0.10067486 -0.56524825 0.963044 0.23673643 0.46392244 1.5418288 -0.6095247 -0.08151407 -0.91302013 -0.910797 0.08169399 0.50377023 0.52987176 -0.96011925 -0.80400366 0.74035627 -1.4687002 -0.59964305 2.0668817 -0.51001555 2.0107927 0.5083665 1.8468455 0.31000376 0.797894 1.9511892 -0.02419083 0.12549174 -0.395167 1.0989072 -0.25913695 1.1594745 0.8767186 -0.56092995 -1.9820268 -0.28189278 0.4705419 1.4256984 -0.3982268 -0.04149194 0.6172074 -0.36092466 0.34212127 -0.216437 0.5462956 0.1009511 -0.16938065 -0.46129474 0.6678899 1.3144768 -0.95120317 1.3451811 0.12965484 -0.34514683 -0.63312954 -0.43755662 0.12110552 1.8241686 -1.3075176
recommend 0.32241696 0.14792246 -0.6587503 -0.2344587 -0.17374134 -0.028374296 0.19245757 -0.35424915 0.32259864 -0.15894017 0.044341683 0.38475913 -0.80761045 -1.0006158 -0.8428997 0.35517755 -0.21040663 -0.8717071 -0.59515303 -0.22190201 -0.31478465 0.049373772 -0.1683574 -1.2438631 -0.5880009 -0.17915347 0.2227945 0.5718793 0.03455508 -0.11648038 -0.4148491 0.3687082 0.48054862 0.736107 0.42833427 -1.4004608 0.62631625 0.90994185 -0.86206454 0.32019374 0.33175135 -0.32905364 0.17565481 -0.20387575 0.3279256 -0.38719258 -0.6467724 0.7176217 -0.4692283 -0.07202537 0.16821596 0.2167633 -0.4206387 -0.22049326 -0.35959068 -0.5315787 -0.4041527 0.07550169 -0.28284705 -0.09530927 0.81819355 -1.0410681 -0.95707154 0.2189189 0.100758106 -0.55875593 -0.31149206 -0.8645483 0.006444321 0.28006098 -0.6279146 -0.48911002 0.15689674 0.62484044 -0.19899975 0.5769302 -0.63284326 -0.2806495 -0.43780872 0.012311186 -0.3256456 -0.606198 -0.08687845 -1.5166601 -0.5458429 0.053823452 0.43472934 -0.0947285 0.0703505 0.044539265 0.008954075 -0.47294208 -0.8426738 -0.07895053 -0.30796313 1.557522 1.0706815 -0.10391529 0.46887237 0.741069
communication 0.8360855 -0.13213421 -1.6523848 0.004257641 0.12156356 -1.0910565 -0.50422674 -1.3823756 0.22282983 1.0007628 0.9611442 -0.79638475 1.4346688 0.97645783 -0.6092152 -1.6415141 -1.1338338 -0.1385562 -0.7216565 -1.1595508 0.08150244 0.006484357 -0.3628288 0.27568042 -1.0374265 0.91861653 0.29250363 -0.53660774 -0.5827916 -0.09779696 -0.07140964 1.7860597 2.029087 0.2688118 -0.41449437 1.2500087 -0.49304378 1.3477455 -0.53558785 0.6993897 0.20581952 -0.2002199 -0.44880286 -1.573441 -0.83244085 -0.089686856 -0.09431219 0.4883179 -0.14998505 1.6439358 -0.21366349 -0.2849985 0.18626708 0.09120521 1.9175221 -0.816881 0.11768259 1.1926421 0.3809903 -0.3883938 -1.3178241 0.6599384 0.08374833 -1.0218087 0.20637123 0.5946982 -1.0073142 -0.2938965 -1.4926741 -0.08108905 0.31428388 -1.6694866 -0.3089766 0.09243734 -0.7240818 -1.9763664 0.8809338 -0.32748175 -0.7530221 0.7462691 -0.39509815 -0.23556301 0.49767345 0.5397905 -0.10602063 0.5092071 0.25747347 0.3910699 -1.1858566 -0.485059 -0.84173393 -0.33103964 0.59693617 -1.1836994 0.5364159 -0.8351288 -1.2318254 -0.14477983 0.24670477 -0.09372487
distance -1.1426809 1.0498859 0.17416982 0.8903598 0.12813517 0.41842473 -0.9098296 1.9260275 -1.996358 0.017483067 -1.0360755 -1.9345545 0.8299874 -2.105968 -1.6911556 -0.9276524 -0.7524505 -0.42946684 1.5080979 -1.0190021 -0.43985406 -1.8734813 0.07432391 -1.8259166 -0.35963783 -0.84618706 -0.03161857 2.1590736 -2.2684228 0.7653222 0.9698342 0.4729605 -0.23579933 0.14564963 -0.85291165 -0.5270691 1.5240189 -0.683651 -0.5307576 -1.2676885 -0.06418429 0.7603563 -0.3093846 1.314973 -0.12255966 0.5159628 0.5296456 -0.21136203 0.6450575 0.08729292 0.8592442 0.11256324 -0.2314991 0.45434982 -2.0465014 -0.5343304 -1.1389813 1.869889 0.87914914 -1.4781376 1.5551955 -0.28300816 0.8443761 -0.1178345 -0.049730662 2.301377 -2.3250182 1.1616477 -0.33747107 -1.5774198 1.264537 -0.5617463 -1.543373 0.11416415 -0.009147895 1.6079054 -1.9638503 0.24465218 0.48288557 -0.069036044 0.20526426 1.4709486 -1.194045 -1.7949708 0.7922473 1.0149692 0.73179895 0.04874508 1.2644067 0.18404049 0.33456394 -0.90328664 1.9445722 2.0314012 -0.25649196 -2.4882398 1.2414279 -1.6550905 -0.77743423 -1.081191
bay 0.45050168 -0.23774134 0.3834914 0.68784237 -0.034789044 -0.40735894 -0.58681256 -0.4866463 -1.9067467 0.42285922 -0.50172997 0.18154031 -1.3016609 0.5880415 -0.326333 -0.08925899 0.7802052 0.5454887 0.054590154 0.2379066 -0.18104732 0.06998715 -0.56945753 -0.6964491 1.7094179 -1.6917084 -1.174572 -0.24202748 -1.6582586 -0.19430043 1.6568236 -0.1607019 1.3362833 1.1422449 1.209602 0.0072097527 0.64184606 -2.0011418 1.6499728 0.7320532 -0.6173027 -1.310555 1.3789593 1.0625395 0.8955062 -1.1782159 -1.129548 -0.03138143 1.4850264 -0.55876476 -0.14596517 0.34796968 0.0021059706 -1.2158905 0.13874863 -0.78571093 -1.8803494 -0.096663974 0.8571574 -1.5213203 0.27253392 0.04388295 0.120075196 0.26065806 -1.0222503 2.2284858 -2.0520337 -0.37058362 -0.7171099 1.1412029 0.6278717 1.3760055 0.13946462 0.31102678 -0.3292465 0.9163995 1.2629358 -0.7213051 1.7730492 -0.23756403 0.846545 -0.45571616 -0.80364853 1.0119183 0.30793664 2.8072283 0.3330665 -1.4497708 0.9865982 -1.0840628 -0.52559906 -1.6557575 0.17484444 0.24904636 -0.8349334 -1.0379379 -0.20629807 0.49594927 -0.06911936 -1.5190005
amenity 0.08018821 0.43276814 0.43483487 0.1511442 -0.5634156 0.10166253 -0.011493038 -0.12422263 -0.84479076 -1.6707715 -0.20058075 -1.0051802 1.2966034 0.42937535 0.6532916 0.10047608 -0.113018595 0.14062053 0.3867454 -0.097812995 0.36341187 0.48865277 0.18431027 -0.13071716 -0.2637937 -0.07553689 0.3447407 0.3288642 0.32992998 -1.0960616 0.82086146 -1.2353265 -0.23134351 0.031835023 0.124790855 0.15792531 -0.88779545 0.52353776 0.20527859 0.5653968 0.11712727 0.60057634 -1.1048803 -0.3659414 0.41287112 0.48655814 0.12348795 -0.15405545 -0.3314665 -0.49605072 -0.09108132 -0.37308526 0.7633687 0.13204142 0.07118204 -0.14126182 0.37514302 0.18765499 0.4764674 0.48024383 -0.28703442 0.44791225 -0.22730242 -0.7330931 -0.5179799 0.32328597 -0.44797295 -0.7198301 -0.7771038 -0.37559924 0.113694154 -1.00974 0.004918141 0.14693289 0.75174457 -0.73467237 -0.34493268 -0.18356162 -0.0867994 0.46271348 1.2418696 0.083829544 0.71008 0.8493457 -0.36278975 0.74941516 -0.11835819 1.0010312 -0.11418815 -0.81426716 -0.43596023 -0.3090534 1.5485262 0.1655147 0.4411176 -0.99501806 1.1637788 0.16521913 0.24013294 0.9176392
garden 0.3492541 0.7106816 0.18900216 0.48944426 -0.08354312 -0.9742967 1.4720834 0.5764861 -0.18749478 -0.6370359 -0.31219283 -0.77203965 -1.4946415 0.27123496 1.2934712 -0.23628351 -0.04859175 0.29400927 -0.28518397 0.3714769 -0.5129417 1.3706101 1.174065 0.43562177 0.37811655 -1.0106175 -0.59854233 -0.018811049 1.1996983 -0.36443385 0.13969396 -1.2871745 -0.072439864 -0.29594284 -0.6156635 -0.48565364 -1.2200916 -0.89687365 -0.25042874 -0.45005724 -0.22312537 0.06570191 -0.10526684 1.3407449 -0.2126062 -0.8135656 0.65646577 -2.019949 1.0370862 -0.54164916 -0.44912568 0.4504856 -0.17783205 -0.50046873 -0.75367475 0.636287 -0.5149661 0.03710228 -1.1024554 -0.14201488 0.15560925 0.27917215 0.7078304 0.76462394 -1.1789817 0.1795816 0.30763054 0.7567583 0.14955617 -0.39577425 1.0614147 0.5241796 0.4690409 -0.44043955 0.05353118 -0.43480268 -0.060452793 -0.83611196 0.07880575 -0.31572813 -0.19187166 0.5906439 0.49916625 0.48821878 -0.6966508 -0.14447223 -1.0338615 -0.38445362 0.7653985 1.3479879 0.049485944 0.4086412 -0.2843924 -0.5231152 0.17089184 -0.7192143 -0.6287618 -0.44537446 -0.008048775 0.19404906
welcome 0.13329601 -0.638729 -1.0392412 -0.23369709 -0.21745445 -0.0679262 1.1733778 0.3042706 0.7837813 0.8205111 0.06040313 -0.8984834 0.8437113 0.014559632 0.06859206 -0.55491024 0.41547102 0.20138885 0.73974836 -0.12261298 -0.032513272 0.37574962 -0.00761016 -0.0032867715 -0.332079 0.14024284 0.3358834 -0.3535697 0.6710996 1.9252423 -0.123217024 -0.18348022 -0.4236879 0.58146995 0.0075132716 -0.24475941 0.06488405 0.37388927 -0.004812693 0.48252648 0.54735583 0.20261599 -0.29895812 -2.3718321 -1.4189906 -0.7464102 0.056893338 0.083589375 -0.06557903 0.7428832 -0.13910381 -0.80644965 0.08652256 -0.8095665 0.43616354 1.4247614 -0.13606824 0.30509365 0.16190659 0.019572277 0.49514475 0.04564005 -0.35090908 -0.566014 0.20804524 -0.37306115 1.5825117 0.40959352 -0.49124476 0.5106179 0.4661907 0.33004487 0.29277536 -0.38821203 0.50102186 -0.41284165 0.23514748 0.20988245 -0.48021853 -0.62297267 -1.4931113 -0.0708116 -0.7361395 0.82539886 -1.1088609 -0.15690434 -0.49032903 0.12612239 -0.23565434 0.82235944 -0.6539481 -0.4271367 -0.36773762 -0.7814992 0.2249783 -0.22142336 -0.38614282 1.4285147 0.559875 -0.55769473
shop -1.4544137 1.4900779 1.7721417 0.45071262 -0.74089044 -1.3453661 -0.6710664 0.18276754 -0.42864186 -2.0996559 -0.6592423 -1.0348303 0.5546865 -0.37631583 -0.69394493 -0.5480592 -0.51689774 0.5139991 1.1193869 -0.64651376 -0.026072698 -0.9790683 -0.9368785 -0.15043697 -0.5050798 -2.8735356 -1.3949286 -0.38816652 0.21967153 1.1936661 1.8140775 -0.13919035 0.70630693 -0.52691215 0.12511359 -1.372832 1.7263466 -1.0747981 0.79728943 -0.24501525 -1.4469604 -0.66189694 0.22131228 -0.7738698 -0.63158464 -0.24611786 -0.41317493 -0.789823 -0.07139732 -0.546919 1.4122586 1.8656188 -0.84021 0.22648615 -1.0093735 0.19091645 -0.5456253 2.1266687 1.4657933 -0.8859032 1.32609 0.14388229 1.1528302 -2.642243 -0.8047664 0.6580674 -3.2380126 -0.7911174 -0.9662246 1.2541519 -0.72329956 -1.2586758 0.6233402 -0.23438098 1.3176665 -0.573079 -0.50257385 0.21462429 1.254096 0.5072303 -0.15301773 -0.4656478 -0.34537357 -0.8466193 0.56816906 2.021533 -0.5219696 1.8784496 0.50728303 1.0056363 -0.19245008 -2.0368772 0.06315455 1.6376957 -0.31662002 -1.5360662 1.0051166 0.107400656 -1.1563387 0.20169617
drive -0.4152967 0.28238332 0.66283274 0.2968172 -0.3206766 0.5786221 -1.5981069 0.7951091 -2.752704 -0.8779789 -0.85674626 -0.7515481 -1.7682137 -0.084125385 0.3520118 -1.2074692 -0.8684 0.17230023 2.547191 -1.3766319 0.869651 -2.2598028 -0.48599866 0.23785983 1.9794625 -0.9272443 0.0101424465 0.9322209 -2.145363 2.1304178 0.27963814 2.3041787 1.3665414 1.8247325 -0.5497727 -1.3492372 1.2813905 -1.2854373 -1.2120394 -0.5526567 -0.06838747 0.26614025 1.2005764 0.11854369 0.74303234 -0.03097614 0.001247905 -1.0652288 2.1798441 0.4708642 0.9025247 1.4559991 -0.79751605 0.2597458 0.9184496 1.3147236 -1.7437315 1.5066029 -0.26786554 0.9154709 1.326585 0.29509914 0.13603412 -1.2665015 -0.46102968 0.4348297 -0.67133117 0.24551658 -0.62861 -0.7421635 0.9701099 -0.77647626 -0.6417171 -0.13368791 -0.44687945 1.4493774 -1.3030435 -1.2256935 0.22941682 -1.3323389 1.9717551 0.64923906 1.3228954 0.1943585 1.3565819 1.683414 0.3728261 1.4782138 1.7370157 -0.88520235 -0.41381255 -0.75976723 -0.30721456 0.7911655 0.356422 0.030182006 0.38099468 -2.0821073 -2.282226 -1.8084258
modern -0.87319595 0.0111724585 -0.013615017 -0.14945966 -0.4776804 0.27100053 0.25239366 1.041181 -0.7947249 -1.180853 -1.5483882 -0.44778755 0.9413146 1.1720021 0.7143992 1.3048639 -0.92418253 0.027892463 -0.277317 2.0893278 1.5043994 0.1813621 1.2485862 0.07907751 0.011029965 0.35848653 -0.23267305 0.2870556 0.6574397 -2.0630693 -0.09570073 -0.5504722 -1.5726087 -0.13953191 -1.099171 0.29053417 -1.152967 0.3942992 0.31087598 0.051602066 0.7843715 -0.4289009 -0.14783734 0.94362515 0.5955519 -0.095810644 -0.30758882 -0.57857716 -0.48915422 0.07633554 1.0514984 -1.0299338 -0.37000158 -0.805409 -0.6200354 0.0864392 0.18489125 -0.20892896 0.24841636 0.18006293 -0.3394196 0.31021684 1.3190136 0.9708896 0.6580261 -0.95160145 -0.15208952 0.29490718 -0.36697042 0.794224 0.10893849 -0.22927769 -0.1588682 0.6821076 0.3946087 -0.50174916 0.05315077 -0.27181873 -0.08938871 1.397933 1.7060996 1.673978 0.37015116 0.34358335 -0.15336351 0.10431808 -0.0055694515 -0.7329186 -1.2719392 -0.42124596 0.57800335 -0.19882073 0.77961427 0.6185382 0.42290863 0.050037377 0.49675503 0.12499986 0.13009098 -0.35987714
fire -1.3407347 -0.6360036 1.8273484 0.53006446 -0.81380415 -0.77872443 0.05598756 0.7705063 0.6757128 -0.9178705 -0.50230056 -1.3623104 -0.07050957 -0.24336924 0.9288123 0.25062534 -1.1449933 0.98321295 -0.54707855 -0.5469661 -1.149101 1.7602928 -1.9348881 1.0494736 -1.0015501 -0.16194955 1.534437 -0.6686782 2.0068622 1.4472777 -0.44125637 -0.410174 -0.9088392 1.2520986 -0.04058357 0.07041813 0.32310763 -0.15484849 1.0345565 -1.6316154 -0.85132265 -0.21876152 -0.32946762 -1.3583729 0.49465632 0.8174841 1.3201238 -0.51652575 -0.45718813 0.05606319 1.9310118 0.25380847 -0.5883817 -0.06544822 0.33467454 -1.656226 -0.09592145 -2.9667547 -0.6246555 0.9263275 -0.7949011 -0.5232076 1.1343442 0.664822 0.49935308 0.9459745 2.3632407 0.50346255 -0.14518712 0.30953974 0.2657619 0.115095444 0.41635072 -0.9423298 -1.2522179 0.016346348 -1.649356 -0.995459 -0.08649213 -2.1392329 1.5140707 -0.10415037 -0.17786072 0.036909096 -0.25200567 -0.5210937 0.8993513 -0.14963913 -1.1784028 -0.18531142 0.39708382 1.4899727 -1.4906356 -1.1490285 0.805028 0.13423209 -2.0920112 1.5155294 0.834281 -0.89524746
airbnb 0.4036377 0.3480949 -1.3911351 0.44339725 0.55109024 0.2762937 0.13981521 -1.0528101 0.5327613 0.44441912 -0.19526367 0.90648067 -0.33721334 -0.33414206 0.19402304 0.65263325 0.085422374 0.13612588 0.28102392 0.15656485 0.19758712 -0.46999902 0.12379516 -0.24301304 0.37904036 0.78658384 -0.50885755 0.3170609 0.34186077 -0.7418911 -0.42340785 0.64311683 0.7824003 -0.67638254 1.1021942 0.06449432 -0.5293776 -0.11021391 -0.08234362 -0.07086765 -0.28337845 0.1678928 -0.25051585 -1.1230924 -0.9311318 0.30145302 -0.6722974 1.2176344 -0.018578598 0.9393645 0.2675675 -0.24145067 0.97463423 -0.40001556 0.5257688 0.45701522 0.9698684 -0.39712343 -0.6440511 0.53126603 0.38498062 0.14835171 0.8550569 -0.11234975 0.61643255 0.51125646 -0.39211768 0.29702905 -0.40222138 0.7469376 -1.0319028 -0.656705 -0.96576416 0.036890723 -0.2219293 -0.6713319 -0.22435664 -0.42773563 -0.9464894 0.13380867 -1.5597594 0.24119303 1.1967738 -0.29312876 -0.6782047 -0.6531881 0.2632777 0.9101616 -0.39346993 -0.11802441 -0.16196705 0.75283074 -0.5164505 0.4945384 -0.6571359 -0.0050950064 1.2040212 0.024062878 0.23066327 -0.21773174
much -0.30924034 -0.04245784 0.044814903 -0.38780847 0.45998406 0.17939928 0.6141165 0.5806267 0.25818878 0.67135036 0.1076878 0.26801223 -1.2806413 -1.197784 0.43622938 0.06360277 0.8204216 0.536582 -0.43429267 0.1659363 -0.16019695 0.50409734 -0.06766464 0.59928393 0.3353819 -0.073966816 0.96644723 -0.622513 0.13713509 -0.55110073 -0.39922178 0.35250703 0.0853473 -0.12996504 0.52805805 -0.15063103 0.94731265 0.031072125 -0.35703292 0.4510063 -0.8076775 0.07442432 -1.4904233 0.22625399 -0.61527956 -0.18222438 -0.78190935 0.08224873 0.03182443 0.8929036 0.17546491 -0.035462834 0.14326695 -0.18794735 -0.6140061 0.4274948 0.4107103 -0.04700957 0.14200546 0.045084774 0.19724904 0.32137468 0.42828748 -1.3989682 -0.2235845 -0.4403248 0.62361264 -0.43720078 0.36249596 0.512525 0.35694787 0.80783075 0.061729956 0.71672624 0.862731 -0.14878774 0.38809946 0.630229 -1.10299 -0.4464127 0.32465342 -0.9603022 -1.2048552 0.78115815 -0.7512495 -0.34606966 0.0611539 -0.34037614 0.26732236 0.85033256 0.0202526 0.74124914 -0.2832856 0.283847 -0.5825851 0.6673469 0.38363448 0.41654223 -0.056848954 0.7653232
arrival -0.1497844 -2.3576558 -0.32189605 0.231891 -0.77345645 0.7400844 0.40682197 -0.4016463 0.14877827 1.0915259 -0.21025807 -0.26111037 -0.13619766 -0.23197137 -0.040498957 -0.92311215 -0.39533424 0.21309438 -0.0053867125 -0.329372 1.4168919 -0.5480983 0.30115741 0.5173657 -1.1712859 0.30324417 1.4031812 -0.124296606 1.3213785 1.7168747 1.353213 -1.0158474 -0.31688413 0.61397105 -0.5221552 0.33650348 -0.6168474 0.48812133 0.018214738 0.9893841 -0.91665417 -0.9444484 0.4905233 -0.96426743 -1.2457229 1.2325625 0.22648512 -0.17723553 0.7641279 0.76740116 0.78150105 -0.3760313 -1.0510103 -1.8209879 0.5005177 0.31546193 -0.8188214 0.48735783 -0.56554717 -0.14313464 -0.41035977 0.48706448 -0.5142239 -0.8785508 0.13873143 -0.0005033362 0.37702668 -0.21729723 -0.18607369 0.087247096 -0.12710103 0.15176132 0.44829926 -0.9002449 0.6531754 -0.40928334 0.24289206 0.17217942 -0.8790556 -1.8440385 -1.860842 -0.11335103 -1.07594 1.2218983 -0.761273 -0.11407416 -0.7538968 -0.09829781 -0.3731708 0.18324313 -0.12732103 -0.72537404 0.43334162 -0.92843777 -1.1970478 -0.079760775 -1.3474838 2.2235007 0.3987851 -0.41485876
next 0.31998217 -1.2070706 -0.6739113 0.005301499 1.6287951 -0.8820282 8.313861e-06 0.89428025 0.2964562 0.63958603 0.42230305 0.56895894 -0.63015676 -1.2676524 -1.1467589 -0.667537 0.2894916 -0.60506606 -0.52754897 -0.38036078 0.3264441 -0.44251397 -0.31351185 -0.41326714 -0.20963328 -1.5124559 -0.94474095 0.74516153 2.5736487 -0.13249515 0.6722569 1.3887742 1.2419602 0.6022236 -0.8436427 0.24238117 1.1103991 -0.75707084 -0.36623645 0.11897606 0.48557398 -0.5169335 -0.5350011 0.8739155 0.45808548 0.434645 -0.5049253 0.43141082 0.489481 0.29775304 -0.5557893 1.2439967 0.348821 -0.9912568 -0.7982147 -0.6034947 -0.46339256 0.4997483 0.83095723 1.48597 0.39624357 -0.48175898 -0.31729448 -0.20602107 0.26518953 -1.3652287 -0.2298845 0.10793899 -0.5967694 -0.04793491 -2.2864318 1.0023165 1.0941137 -0.5492877 0.52359325 1.9937538 0.87947446 0.6136671 -1.0423776 -2.6586995 -0.66757137 1.1765124 -0.38955486 -0.7721916 0.16740927 -0.48321852 -0.97188467 -1.13205 0.50357765 -0.0512672 0.8125248 -0.6021144 -1.2425734 1.7340751 -2.0246794 -0.9290978 0.55502325 -0.0009051383 0.65231806 0.2017081
trip -0.6848147 -0.7968555 0.19864687 0.4787534 1.8808873 -0.36663526 -0.20400795 -0.09323542 -0.12045195 0.27550182 1.4452949 0.7272201 -0.9661104 0.032274622 -0.110955074 1.258015 0.7512919 -1.0834628 -0.14070433 -0.72305036 1.0429382 -1.3894511 -0.61678904 -0.07819592 0.7587104 0.0023706532 -0.5123935 -0.1698941 -1.7021667 0.22655731 1.0153968 1.0907297 -0.1650324 0.49361628 0.9707039 -1.3993312 1.4077203 1.2815166 -0.99567556 0.545236 -0.43124253 0.60524553 1.3443726 0.08635755 -1.0682209 1.3839939 -0.28853852 1.4424547 0.6240016 1.4324306 -0.36113527 0.30585352 -0.93515384 0.635035 0.69825375 1.6398401 -0.4987389 0.049421076 -0.75678045 0.2283973 -0.012613949 -0.30814037 0.44383278 -0.5603362 0.4945636 -0.9065639 -0.059061896 0.86605036 -0.80198556 -0.80477303 0.450861 0.009359414 0.50210756 0.14369403 -0.71966493 0.4125418 -1.2397478 0.452995 0.12591824 -0.42987046 -0.100805 -1.6081563 0.7192482 -0.36862293 1.2161502 -0.091598496 1.712557 0.9696819 1.8234985 -0.8342338 1.3366705 -0.05308935 -1.0923154 -0.82259756 -0.4976687 0.6377134 -0.7147016 0.29490113 -0.8099132 -0.72373575
launceston -0.34007764 0.9357955 -0.0553966 0.3816605 0.30702692 -0.9127743 -1.7312387 -1.0721416 -0.66614634 0.92820275 -1.0592157 0.069811694 0.2202423 -0.10640424 -0.83926404 0.4306954 0.4695836 -0.713046 -0.34929055 -0.93820965 0.6638394 -1.1949277 -1.3870928 -0.59751004 1.3170309 -0.11754899 -1.1115384 -0.14993086 -0.3774823 -0.23100531 0.7275698 0.20310594 0.50175047 -0.80228114 0.83531487 -1.2779431 -0.45030704 -1.5608767 -0.9628054 0.32934842 -0.39818752 -0.61956286 -0.022780467 -0.069125295 0.008612498 -1.2528876 0.4900591 -0.5542421 0.779105 0.0062391954 -0.017080761 0.45885816 -1.6824805 -0.049089003 0.254263 -0.089532204 -0.43476993 0.075206354 0.017353516 -0.96986926 0.9307242 -0.77202445 0.4283438 -1.8202381 -0.16958931 -0.5978083 0.26380378 -1.0623006 -0.0888815 -0.3638602 0.6213271 -0.9936636 -0.56110877 0.7007578 -0.6559017 0.84774923 0.20002028 0.9469233 0.7658849 0.4322881 1.267976 -0.81358105 -0.061671093 -0.8792513 0.25974563 0.45295286 -0.71810484 -0.04948864 0.417371 -0.8567953 0.8557286 0.22246754 -0.6973071 -0.085487 -0.54933214 0.80008185 1.0558932 -0.64182603 1.1764243 -0.04277117
tasmania 0.37226355 0.80688435 0.48287946 1.4613552 0.4670897 -0.326715 -1.058635 -0.38085255 1.6620449 0.98868465 0.341015 0.56811 -1.0108478 0.15563971 -0.3990421 1.2479091 1.7201998 -0.9632106 -0.8396843 -0.768221 0.719493 -0.9238225 -2.3592572 -0.7562892 0.9625754 -0.018679736 -0.7799752 0.6842479 -1.0060424 -0.13574773 0.56964445 0.8077464 -0.11822587 0.07303699 1.0091687 -1.3391787 -0.7325346 -1.1693366 -0.07368309 0.11551333 -1.2201296 -0.36307448 0.15470561 -1.0435909 0.12821198 -0.038946852 0.010891059 0.24199235 -0.53897524 1.2955745 -0.11332671 1.0014318 -1.1890385 0.25213537 0.36736423 -0.35425848 -0.16241376 0.7261835 0.039522815 0.17314975 1.2228016 -1.0723082 0.57772475 -0.70046824 -0.6785824 -0.34997788 0.39211977 0.24557202 0.2245381 -0.22974062 -0.8779191 -0.089138955 0.34755763 0.18557931 -1.664433 -0.34073555 -0.395317 0.20449355 -0.44438487 -0.23695807 -0.42737693 -0.9034379 1.0659013 1.0217756 -0.83102334 -0.4794351 0.34044638 -0.6361478 1.097643 -0.8654247 0.4228754 0.77707565 -0.9685406 -0.60841286 -1.3779947 -0.15216428 0.14292082 0.34222728 1.5149752 0.1881988
bedroom -0.10748947 -0.122756094 2.3935342 -0.13675298 -0.5260747 -0.54061973 1.7336755 -0.43650624 -1.1353183 0.1296458 0.2589852 -0.28745458 0.19285664 0.22664854 -0.038076174 1.1814635 -0.9887375 0.720079 0.70288956 0.4699094 0.2274107 1.7735763 0.29816714 -0.42788675 -0.91597974 -0.03858703 -0.75578606 0.062975235 0.13262422 -2.525861 0.1467146 -0.29264477 -0.47773182 -1.0076952 -0.30595174 0.5999304 -1.2276996 0.14278772 0.57024443 -1.3710399 0.7572517 0.5723792 -0.8489475 -0.13990943 -0.22264855 0.90627056 0.27819526 -0.37577954 1.4869477 -0.86028063 -0.2138652 -0.3149801 -0.4491449 0.74670106 -0.46334046 -1.5809507 -0.7134618 -1.3191736 -1.9287895 0.6262365 -0.90173775 1.4438118 1.176598 2.5829897 -0.6448857 -1.0126833 2.5638874 0.3588735 -0.866655 0.069020934 -0.5131264 -0.12688804 -0.37739876 -0.5076339 0.16243888 -0.423836 0.39330366 0.52697635 0.6145267 -0.079881914 2.342198 0.63086 -0.50721157 0.8672279 -1.4775573 -0.061556 0.6681049 -0.6087453 -0.65582705 0.3078302 0.5668088 -1.1430731 0.83871055 1.6263326 0.48172888 -0.66460687 1.2726915 -0.2616504 -0.77676594 -1.7830272
private -0.10628688 0.13247596 0.67028606 -0.80859 -0.67860615 -0.3629068 -0.2593621 0.6621578 -0.5799434 -1.0521199 0.15093052 -0.38655084 0.5730044 0.07705619 0.09240942 0.7138985 -0.46391058 0.5221926 1.0972773 1.6025032 0.013350291 1.1858605 1.2490802 -0.61891633 -0.6215811 -0.7521102 -0.007980081 0.30198035 0.33825585 -0.73521554 0.701054 -0.30661744 -0.004896322 -0.49095222 0.4542545 0.003830196 -0.82951486 -0.60480523 0.6288632 -0.37099132 1.2466402 0.12619781 -0.19524966 -0.0077429125 0.52729046 -0.79366356 -0.21034563 -0.20366508 0.04470592 -1.6100279 0.5131181 1.3512574 -0.5047944 0.34972385 0.017057039 -0.7617734 -0.059149206 -0.48165292 -0.6791654 -0.4546713 -0.30050674 0.14068656 0.7085107 1.4573452 -0.27451232 -0.4604677 -0.3422602 1.1070487 -0.23942843 0.02637191 0.44404256 0.1423775 -1.0674058 -0.072347745 -0.3633468 -0.026560513 1.0858129 0.029075328 0.13061728 0.24987629 1.4538498 -0.082363054 0.6498862 1.1964474 0.21084748 -0.104795925 -0.96115476 -1.1655813 0.7151549 -0.7753373 0.13596518 -0.6951767 0.6423949 -0.0072704344 1.3801304 0.6332258 0.41090214 -1.28759 1.2384381 0.38344884
thing 0.078167334 -0.050114885 0.18685411 0.27844816 -0.13405141 -0.39515302 0.6531271 -0.7368098 -0.5210916 -0.12657098 -0.15551163 -0.117785454 0.15319256 -0.6646285 0.038011912 0.58394116 1.196555 -1.0191644 -0.060694616 -0.8447439 0.14970016 -0.2884236 -0.9578745 0.7293516 -0.61926174 0.0009605166 0.816233 -0.5612583 -0.2281752 -0.058614276 0.85996675 0.24626094 -0.62348557 -0.83963585 -0.12885316 -0.32299936 -0.38265797 -0.062980056 0.42809242 -0.029087365 -0.5274251 -0.13844724 -0.62562275 0.038478106 -0.9978363 0.41678867 0.510576 1.0894575 0.17705193 -0.2567485 0.065573245 -0.35986477 0.27546635 0.08788479 0.85381466 0.06898289 0.29492295 0.4046565 0.105674684 -0.23473886 -0.12043765 0.6874336 0.24782646 0.030875599 -0.12635827 -0.8355186 0.21992688 -0.55651826 -0.40919328 -0.053339787 -0.83141536 0.61834246 0.1847823 -0.1993812 1.9358522 -1.9895281 -0.7216534 -0.059441734 -0.48217398 -0.5516349 -0.4503833 -0.25387427 -0.015352401 0.44512057 -0.44749793 0.16097468 -0.3757896 1.0559669 1.3772451 -0.76346934 -0.96898985 -0.7816881 -0.2004373 -0.28558785 -0.66525096 -0.6543445 0.3776135 -0.07311039 -0.7175599 -0.10007387
gorgeous -0.13845709 0.8156812 0.51058936 -1.2178466 -0.36633125 0.9789924 -0.17723079 0.34471428 -0.11228365 -0.3797411 -0.7637613 0.026849259 -0.11311716 0.7845274 1.2819686 -0.37732133 -0.29339236 0.008160191 -0.20451821 1.1676214 -0.47948083 1.0217682 -0.2547637 -0.5077708 0.019425526 -1.0135541 0.18667349 0.050826665 1.2243673 0.27950126 -0.025260659 -0.5689312 -0.80061316 -0.09124919 0.22606488 -0.39891616 -0.5292932 -0.5068091 0.57761824 -0.6565897 -0.11312587 -0.37866563 -0.32464495 0.80368763 0.17611977 -0.9711651 0.2408892 -0.437317 0.7548066 -0.5796067 0.2036032 -0.273187 -0.048533924 0.1122036 0.008321103 0.5963425 0.7234207 -0.48119444 -0.12465747 -1.3445553 -0.93841743 -0.50375557 0.887438 0.5878632 -0.0961742 -0.34803274 -0.029219367 0.81861436 0.10877723 -1.2665697 0.55648774 0.78312063 0.7164271 0.33907762 0.21202075 0.65404826 0.45782703 -0.58558387 0.5756705 -0.33885613 0.5909458 1.3568274 0.3870909 -0.2316755 -0.48644286 0.21463576 0.22586426 -1.2453372 0.2284877 -0.12205324 -0.33324832 -0.44466278 0.20068258 0.5299542 0.4347511 0.16800119 -0.09252813 -0.48163316 0.31610233 -0.47549674
coffee 0.5585911 -0.59829485 -0.9932757 0.37752122 -0.08122089 0.74185026 0.15893126 0.7722523 -0.24723664 -3.1487124 -1.169318 -1.8808451 0.73055995 0.26556304 -0.04209674 -1.3641839 -1.8515857 0.17557256 -0.17955224 -0.9581309 0.54689026 -0.421237 -0.3659018 0.68550694 -0.24306442 -0.50077546 0.35794273 0.5947679 0.6478639 -1.7973448 1.194397 -1.8826993 1.2433226 -0.04958141 -2.1017342 -1.6045483 1.4151729 0.12877113 0.29928747 -0.0003098486 -1.0268497 0.5948367 -0.12842937 0.6924468 -0.7305053 0.45062092 1.6913319 -1.1533453 0.3407378 -0.0148269795 -2.1024382 -0.82054186 -1.1860499 -1.4821798 -1.1027498 0.701612 -1.0010425 -0.9465178 1.3346251 -0.5230102 -0.6190286 -1.3833827 -0.8871057 -1.0454371 -0.24514017 1.4864378 -0.6176432 -0.24136457 -0.26865283 0.8019076 -0.7418508 1.5516177 -1.0192752 -1.9490223 2.209989 -1.2371482 0.003572541 0.40232763 -0.64591295 -1.852358 -0.50050473 0.11394022 0.47306672 1.6365565 0.5994124 0.4467914 0.38354003 2.2790399 0.98830897 -0.67887104 0.22580488 -0.7604087 -0.43020627 0.2745063 -0.72292006 -1.3268062 0.16760242 0.33486363 -0.19138172 -0.30711302
couple -0.40806848 -1.5041074 0.5115378 -0.31850663 0.34596846 -0.5962918 -0.2805492 -0.18625154 0.01714502 -0.5998144 0.47059977 0.46008483 0.02602572 -0.97313637 -0.34864992 0.4276244 0.7302027 -0.57589304 0.7925134 -0.3499002 0.39511102 -0.05601895 0.50452524 -0.41816318 -0.24467747 -0.52741635 0.058220215 -0.92747116 -1.5127007 -0.5741472 0.2015743 -0.35484266 0.3272104 1.0097069 1.0424178 -0.98193085 0.28827456 0.209634 -0.14074512 -1.534531 0.04458824 -0.45931295 0.42712417 -0.07709003 -0.2154266 -0.58686084 -0.49826977 -0.124853306 -0.5535938 -0.009609773 -0.34607488 0.3263738 0.036309 1.0540519 -0.18345319 0.89614 -0.96801764 -0.06789773 0.06627079 1.0758272 0.08248486 0.4449038 0.065160275 0.46115673 -0.42060715 -0.8799496 0.83813703 -0.8241471 -0.20538314 0.57891303 0.22483978 0.13918835 -0.37817222 -0.8084522 0.33445868 0.57022595 0.44412073 0.73243326 0.6428398 -0.08567989 0.5250875 0.27608517 0.7253425 -1.389127 0.39254338 -0.56553805 -0.08996405 -0.27169725 -0.7186225 -0.27729544 0.02068461 -0.35549185 0.6609704 -0.61033875 -1.3237526 -0.36166978 -0.4759802 0.40393505 -0.80878687 0.20184799
fresh 0.9728097 0.59688526 -0.35759753 -0.21981111 -0.35144988 0.709258 2.207411 -0.40934932 -1.2135732 -0.8050442 0.039986406 -1.8543656 -0.0061006416 0.9922253 0.618004 0.7009912 -0.76289177 -0.41615373 0.7422251 0.36489958 0.477455 0.40230468 0.13183966 1.6505401 -1.3385105 -0.8323703 0.64296764 0.6470011 1.6931766 0.7441982 1.2953134 -2.885306 -0.5261109 -0.12641999 -1.3293151 -0.28087214 -0.717334 -0.18525442 -0.20574847 2.1663225 0.071113236 0.087370686 -0.031327967 -0.36343098 0.66669756 -0.027916087 -0.2361551 -2.045647 0.31920582 1.3182995 0.42284983 -0.4941243 0.043655884 -0.094122015 -0.6100637 0.90495926 -0.4909308 -1.506144 0.07286958 -0.5621313 -0.19345672 -0.1336923 -0.9353105 -1.1008108 1.0851613 0.5479472 0.7091286 0.97037995 -0.6629591 0.7063983 -0.2458002 1.2561829 -1.0528424 -0.4048199 0.3956126 -0.35699964 -0.14598611 1.4266467 1.0483475 -2.1070287 -1.2692889 1.9151274 0.13359499 -0.78985316 -0.44475704 0.07801697 1.2710631 1.0877401 2.0718722 0.6939799 -1.6470492 -1.5854883 -0.3873914 -0.12714311 0.24719489 -0.13497682 -0.59134835 1.2548358 1.078525 0.64937896
convenient 0.20832232 -0.28901798 0.3493878 1.1267136 -0.21930504 -0.59486705 -0.67538834 1.3067421 -1.1468613 -1.4645706 -0.17045824 0.09291639 0.49181336 -0.057246067 -0.73224276 0.095738485 -0.07223693 0.60824466 0.58719623 0.36968213 -0.6764387 -1.0998348 0.38589168 0.040105816 0.80600595 -0.383142 0.51250446 1.2802933 -0.2286721 0.1442445 1.6036938 1.6237209 0.49618098 -0.8481622 0.07118507 -0.14932163 -0.030617757 -0.44671294 -0.4075595 0.29855844 0.032819003 0.4082333 0.16546266 0.17287177 -0.2929562 -0.5303352 -0.37837136 -0.34971792 0.6448025 -0.065560475 -0.39013875 1.2299562 -0.55253345 -0.61120844 -0.37105602 -0.6107895 -0.6701259 0.20951973 1.1643113 -0.18579909 0.30494046 -0.9786869 -0.05046394 -0.24096118 0.6180053 -0.3425597 -1.1310722 -0.5116104 0.34671924 -0.38493216 0.35619405 -1.431621 0.11585502 -0.41423237 0.5682384 0.49607342 0.041957878 0.20655155 0.6346255 0.5274566 1.1199156 0.982756 -0.8246772 -0.85239834 0.673902 0.29437417 -0.1976953 0.3126786 0.8441334 -0.61605453 0.28517726 -1.0244367 0.9553422 0.47338593 0.53455794 0.37590712 1.3605815 -0.42792347 0.586801 -0.02995326
plenty 1.0778582 -0.9753442 1.2045826 -0.8326768 0.02668694 -0.018624844 0.113617755 -0.07072571 0.28612873 -1.9906255 -1.0711052 -1.0956461 -0.7950035 -2.7013686 -0.81822103 -0.21500313 0.07437925 -0.56746906 0.70258737 1.0075495 0.7194488 1.051994 0.9775922 0.69299895 -0.32187685 -1.1694682 1.2116711 -1.3546824 0.17689392 0.5030912 -0.29922825 -0.45178717 -0.8608789 -0.6709081 0.049930796 -0.006047211 0.2999539 0.8226507 0.311387 -0.4181565 -0.052736565 0.09989342 -0.9368709 -0.3422497 0.04165034 0.89904714 0.62311834 -1.1562941 -0.15254699 0.033867963 -0.79748863 -0.28687853 0.03097193 -0.40678748 -0.7942484 -0.26600263 -0.10412401 0.3352857 -0.68367994 -0.29879084 0.59548306 -0.32170126 0.9012349 0.013409291 -1.3068864 0.21084629 1.0649512 -0.8726379 0.23799743 -0.2291916 -0.09815937 0.3346341 -0.96465933 -0.15964387 -0.17994803 -1.5969052 0.8076307 1.5643522 -1.0155531 -0.3352703 2.1319604 0.32026947 -1.7077315 -0.31920823 1.1177747 0.99357235 0.96294993 0.424152 0.51662946 -1.0592369 -0.5673663 -1.1060392 0.52367973 0.49646303 0.3018101 0.20551303 0.021162681 0.6463988 1.2586106 0.3125898
anyone 0.2222679 -0.09455482 0.22219332 -0.37668523 0.6303673 0.5464666 -0.16415066 0.39644593 0.5028253 0.31371346 0.53812826 0.18571381 -0.54596096 -0.908034 -0.18655597 0.38533303 0.6063296 -0.8996778 -0.040801633 0.50721025 -0.55393213 -0.94539696 0.045162722 -0.25910273 0.80966073 -0.115373 -0.4646278 0.3159667 -0.28271514 -0.3566452 -0.22571325 0.75725394 0.099916264 0.32976624 0.62979776 -0.27848348 1.1489801 -0.028271845 -1.4094309 -0.21700644 -0.41344488 0.85477364 0.050383195 0.13264908 0.44700494 -0.39395422 -1.1264023 0.33216134 0.14573535 -0.39877743 -0.19120237 0.4188092 0.08480439 0.37569183 0.4591885 0.36854437 -0.9174296 -0.9321695 0.051006317 1.0388833 1.3286027 -0.45216832 0.21069378 0.6794337 0.29543033 -0.79295754 -1.2610742 -0.25438583 -0.6821107 0.026416397 -0.20277414 0.21684426 0.3489557 0.6906396 0.19143 0.6248653 -0.10278488 -0.15970488 -0.9666825 0.64691323 0.024897678 0.08494572 1.140153 -0.58136153 -0.1302055 -0.477605 -0.4159353 -0.9666604 0.22440444 -0.50152785 -1.070552 0.28201118 -0.16937484 0.17935431 -0.32505155 1.161128 0.14951707 -0.057247773 0.2137658 0.45467824
many -1.0743454 0.9037467 -0.20053706 0.5491626 0.97387356 0.31809053 -0.33460915 -0.82315224 0.27511072 -1.1508492 -1.0501436 -0.23398964 -0.6213534 -1.7501035 -0.14699413 -0.7121156 0.88691473 0.5181132 0.28298748 0.32334548 -0.12258087 0.22259137 0.6219487 -0.63980323 0.11225896 0.686579 0.43383247 -0.81575793 0.18682435 -0.128168 0.768117 0.27105564 -0.87705904 -1.7748243 -1.293315 -1.2743508 0.6609808 0.08878695 -0.2501542 0.22751625 -0.26038045 -0.52814436 0.17001276 0.05642983 -0.48543996 -0.000928522 0.2758891 -1.0994242 -0.33556733 0.3785283 -0.2449991 -0.15947674 0.21747059 -0.27426562 -0.52200025 0.20043631 -0.016605407 1.566863 1.1652541 -0.79551864 0.3069548 -0.20163025 -0.5566633 -0.5376572 -0.59167916 -0.4666935 -0.2601108 -0.00185043 -0.25239998 0.4782524 -0.618782 0.98991305 -0.64250976 0.1044919 -0.068717815 -0.8374984 -0.15480071 -0.34095597 -0.5121074 -0.9671061 -0.37664533 -0.8285602 -0.32130578 -0.6849694 -1.0581856 0.6497677 1.3106776 0.75655043 0.5478579 -0.48699394 -0.81520444 0.7353508 -0.5597369 0.5826007 -0.6366874 -0.112526335 0.6362159 0.6223337 -0.32013136 -0.05479796
car 0.12360886 -0.13840376 -0.24795853 -0.5224588 0.48721445 -1.8674656 -1.8365198 -0.48774332 -2.1424553 -0.37642348 -0.14280304 0.17366628 -1.177328 -0.96673757 -1.5560561 -0.4578028 1.1439693 0.06402316 1.9326067 -1.1054646 1.1825428 -1.3962132 0.057450645 -0.30484766 0.93263113 -0.29997 -0.4396683 0.1100426 0.0502465 0.21188468 0.7891707 1.3544606 0.57054985 0.00090883014 -0.5431265 0.008330862 0.60752726 -0.92383665 -0.69923955 -1.2749718 -2.0523338 1.1004556 0.48504087 -1.0788553 -0.32101557 -0.32940757 -0.3382585 0.15545152 0.7051917 0.11123331 -1.3849213 2.7388358 -0.68991035 0.39105046 0.31744596 -0.90854794 -0.8201935 -0.10757826 -0.69101995 -0.69495463 -0.81905925 -0.06726149 0.9522027 -0.49591044 -0.7518727 -0.122974105 -0.4826397 -0.30030087 -0.16004403 0.45821428 0.40292484 -0.3818525 0.13207723 0.22417143 1.0363394 0.055332 0.6406208 0.8798316 -0.77095634 -0.24087815 1.1576762 -0.25056583 0.16896448 -1.6323739 1.4769511 -0.46138844 -0.9795442 0.7041845 1.2487354 -0.5530424 0.6106152 -0.674564 0.6809759 0.439567 0.07084551 1.0241934 1.5181668 -1.4651587 -0.47444484 -0.5119095
